{"learner":{"attributes":{"scikit_learn":"{\"_estimator_type\": \"regressor\"}"},"feature_names":[],"feature_types":[],"gradient_booster":{"model":{"gbtree_model_param":{"num_parallel_tree":"1","num_trees":"100"},"iteration_indptr":[0,1,2,3,4,5,6,7,8,9,10,11,12,13,14,15,16,17,18,19,20,21,22,23,24,25,26,27,28,29,30,31,32,33,34,35,36,37,38,39,40,41,42,43,44,45,46,47,48,49,50,51,52,53,54,55,56,57,58,59,60,61,62,63,64,65,66,67,68,69,70,71,72,73,74,75,76,77,78,79,80,81,82,83,84,85,86,87,88,89,90,91,92,93,94,95,96,97,98,99,100],"tree_info":[0,0,0,0,0,0,0,0,0,0,0,0,0,0,0,0,0,0,0,0,0,0,0,0,0,0,0,0,0,0,0,0,0,0,0,0,0,0,0,0,0,0,0,0,0,0,0,0,0,0,0,0,0,0,0,0,0,0,0,0,0,0,0,0,0,0,0,0,0,0,0,0,0,0,0,0,0,0,0,0,0,0,0,0,0,0,0,0,0,0,0,0,0,0,0,0,0,0,0,0],"trees":[{"base_weights":[5.802666E-4,-1.0163869E-1,3.307514E-1,-1.3680094E-1,4.452501E-2,2.1574457E-1,4.6497452E-1,-1.6131772E-1,-9.0087764E-2,2.3408371E-3,8.028329E-2,1.6183351E-1,2.5915664E-1,4.17855E-1,7.3030345E-2,-1.6599996E-2,-1.360588E-2,-1.0389613E-1,-7.399386E-2,-1.88358E-2,1.9015294E-2,5.2414775E-2,9.238179E-2,1.3196336E-2,1.8150305E-2,2.3317495E-2,2.87865E-2,3.8321726E-2,4.584019E-2,-1.1036018E-2,-9.550329E-3,-7.9500675E-3,-6.1137932E-3,-3.6015764E-3,-1.3082863E-3,1.1325105E-3,2.6487692E-3,4.701956E-3,6.1558434E-3,7.920901E-3,1.01263765E-2],"categories":[],"categories_nodes":[],"categories_segments":[],"categories_sizes":[],"default_left":[0,0,0,0,0,0,0,0,0,0,0,0,0,0,0,0,0,0,0,0,0,0,0,0,0,0,0,0,0,0,0,0,0,0,0,0,0,0,0,0,0],"id":0,"left_children":[1,3,5,7,9,11,13,15,17,19,21,23,25,27,-1,-1,-1,29,31,33,35,37,39,-1,-1,-1,-1,-1,-1,-1,-1,-1,-1,-1,-1,-1,-1,-1,-1,-1,-1],"loss_changes":[9.122543E1,1.0613909E1,9.763649E0,1.8911762E0,6.04694E-1,7.678337E-1,3.3704796E0,1.0632706E-1,1.20094776E-1,6.568332E-2,6.8323135E-2,6.829071E-2,7.459736E-2,1.7825317E-1,0E0,0E0,0E0,6.1159134E-3,1.4183283E-2,7.6332986E-3,5.6762956E-3,4.6010315E-4,9.528995E-3,0E0,0E0,0E0,0E0,0E0,0E0,0E0,0E0,0E0,0E0,0E0,0E0,0E0,0E0,0E0,0E0,0E0,0E0],"parents":[2147483647,0,0,1,1,2,2,3,3,4,4,5,5,6,6,7,7,8,8,9,9,10,10,11,11,12,12,13,13,17,17,18,18,19,19,20,20,21,21,22,22],"right_children":[2,4,6,8,10,12,14,16,18,20,22,24,26,28,-1,-1,-1,30,32,34,36,38,40,-1,-1,-1,-1,-1,-1,-1,-1,-1,-1,-1,-1,-1,-1,-1,-1,-1,-1],"split_conditions":[2.7843153E-1,1.259477E-1,4.8559386E-1,3.778384E-2,2.0390378E-1,3.6469772E-1,8.355776E-1,2.0506993E-2,8.0164835E-2,1.7383628E-1,2.386416E-1,3.1635714E-1,4.1510636E-1,5.873496E-1,7.3030345E-2,-1.6599996E-2,-1.360588E-2,6.003816E-2,9.888006E-2,1.2559132E-1,1.82163E-1,2.176417E-1,2.541208E-1,1.3196336E-2,1.8150305E-2,2.3317495E-2,2.87865E-2,3.8321726E-2,4.584019E-2,-1.1036018E-2,-9.550329E-3,-7.9500675E-3,-6.1137932E-3,-3.6015764E-3,-1.3082863E-3,1.1325105E-3,2.6487692E-3,4.701956E-3,6.1558434E-3,7.920901E-3,1.01263765E-2],"split_indices":[4,0,4,4,4,4,2,0,1,0,4,4,4,0,0,0,0,4,1,4,4,4,4,0,0,0,0,0,0,0,0,0,0,0,0,0,0,0,0,0,0],"split_type":[0,0,0,0,0,0,0,0,0,0,0,0,0,0,0,0,0,0,0,0,0,0,0,0,0,0,0,0,0,0,0,0,0,0,0,0,0,0,0,0,0],"sum_hessian":[2.701E3,2.063E3,6.38E2,1.663E3,4E2,3.45E2,2.93E2,1.089E3,5.74E2,1.84E2,2.16E2,1.56E2,1.89E2,2.51E2,4.2E1,9.14E2,1.75E2,3.06E2,2.68E2,8.1E1,1.03E2,6.7E1,1.49E2,6.5E1,9.1E1,1.04E2,8.5E1,1.41E2,1.1E2,1.66E2,1.4E2,1.84E2,8.4E1,1.9E1,6.2E1,5.2E1,5.1E1,4.6E1,2.1E1,6.4E1,8.5E1],"tree_param":{"num_deleted":"0","num_feature":"5","num_nodes":"41","size_leaf_vector":"1"}},{"base_weights":[2.642468E-3,-9.049314E-2,3.0403557E-1,-1.2363239E-1,4.0557794E-2,2.0170273E-1,4.328565E-1,-1.4530766E-1,-8.217123E-2,4.767225E-3,7.56571E-2,1.5693076E-1,2.4209104E-1,3.8379365E-1,6.62328E-2,-1.49638E-2,-1.2341158E-2,-9.500263E-2,-6.812551E-2,-1.5235188E-2,1.892404E-2,5.5726387E-2,8.8106744E-2,1.2993655E-2,1.754222E-2,2.2176675E-2,2.7745172E-2,3.5395406E-2,4.2893037E-2,-1.0024166E-2,-8.825093E-3,-7.449211E-3,-5.8537154E-3,-2.6151E-3,-8.83973E-4,1.2396646E-3,3.0107766E-3,4.551217E-3,6.510017E-3,7.6823854E-3,9.535655E-3],"categories":[],"categories_nodes":[],"categories_segments":[],"categories_sizes":[],"default_left":[0,0,0,0,0,0,0,0,0,0,0,0,0,0,0,0,0,0,0,0,0,0,0,0,0,0,0,0,0,0,0,0,0,0,0,0,0,0,0,0,0],"id":1,"left_children":[1,3,5,7,9,11,13,15,17,19,21,23,25,27,-1,-1,-1,29,31,33,35,37,39,-1,-1,-1,-1,-1,-1,-1,-1,-1,-1,-1,-1,-1,-1,-1,-1,-1,-1],"loss_changes":[7.705277E1,9.112139E0,8.455025E0,1.4924545E0,5.322785E-1,6.184082E-1,2.9657402E0,8.564377E-2,9.7518206E-2,6.0037285E-2,4.8189998E-2,6.455994E-2,7.4300766E-2,1.687355E-1,0E0,0E0,0E0,1.7297268E-3,1.2671113E-2,5.9122555E-3,8.678839E-3,5.1755607E-3,3.308177E-3,0E0,0E0,0E0,0E0,0E0,0E0,0E0,0E0,0E0,0E0,0E0,0E0,0E0,0E0,0E0,0E0,0E0,0E0],"parents":[2147483647,0,0,1,1,2,2,3,3,4,4,5,5,6,6,7,7,8,8,9,9,10,10,11,11,12,12,13,13,17,17,18,18,19,19,20,20,21,21,22,22],"right_children":[2,4,6,8,10,12,14,16,18,20,22,24,26,28,-1,-1,-1,30,32,34,36,38,40,-1,-1,-1,-1,-1,-1,-1,-1,-1,-1,-1,-1,-1,-1,-1,-1,-1,-1],"split_conditions":[2.8643823E-1,1.259477E-1,4.9654296E-1,4.2752884E-2,2.0841561E-1,3.786666E-1,8.517414E-1,1.5690954E-2,7.841418E-2,1.6821161E-1,2.4610168E-1,3.266981E-1,4.3034086E-1,6.063088E-1,6.62328E-2,-1.49638E-2,-1.2341158E-2,6.393183E-2,9.465886E-2,1.5149875E-1,1.8889476E-1,2.2580858E-1,2.5923178E-1,1.2993655E-2,1.754222E-2,2.2176675E-2,2.7745172E-2,3.5395406E-2,4.2893037E-2,-1.0024166E-2,-8.825093E-3,-7.449211E-3,-5.8537154E-3,-2.6151E-3,-8.83973E-4,1.2396646E-3,3.0107766E-3,4.551217E-3,6.510017E-3,7.6823854E-3,9.535655E-3],"split_indices":[0,0,4,1,4,4,4,0,0,1,4,4,4,4,0,0,0,1,0,0,4,4,4,0,0,0,0,0,0,0,0,0,0,0,0,0,0,0,0,0,0],"split_type":[0,0,0,0,0,0,0,0,0,0,0,0,0,0,0,0,0,0,0,0,0,0,0,0,0,0,0,0,0,0,0,0,0,0,0,0,0,0,0,0,0],"sum_hessian":[2.743E3,2.096E3,6.47E2,1.673E3,4.23E2,3.62E2,2.85E2,1.097E3,5.76E2,2.1E2,2.13E2,1.74E2,1.88E2,2.37E2,4.8E1,9.11E2,1.86E2,2.98E2,2.78E2,8.7E1,1.23E2,8.4E1,1.29E2,7.4E1,1E2,1.24E2,6.4E1,1.48E2,8.9E1,1.6E2,1.38E2,1.63E2,1.15E2,3.1E1,5.6E1,7.9E1,4.4E1,4.3E1,4.1E1,5.5E1,7.4E1],"tree_param":{"num_deleted":"0","num_feature":"5","num_nodes":"41","size_leaf_vector":"1"}},{"base_weights":[3.734046E-3,-7.94129E-2,2.764971E-1,-1.1028777E-1,3.8862884E-2,1.8914998E-1,3.9872852E-1,-1.3061178E-1,-7.301234E-2,4.1062008E-3,6.938886E-2,1.5237921E-1,2.358141E-1,3.4556833E-1,5.7848167E-2,-1.3436141E-2,-1.0946491E-2,-8.28195E-2,-5.8446873E-2,-1.51287755E-2,1.7158633E-2,5.2542124E-2,8.1625864E-2,1.2952861E-1,1.7200427E-2,2.1315975E-2,2.6838988E-2,3.0555764E-2,3.6173128E-2,-8.775335E-3,-7.4146837E-3,-6.210539E-3,-4.66931E-3,-2.7079375E-3,-1.0644228E-3,9.833537E-4,2.5903143E-3,4.1529327E-3,6.0797515E-3,7.2234753E-3,8.822643E-3,1.0008116E-2,1.3464734E-2],"categories":[],"categories_nodes":[],"categories_segments":[],"categories_sizes":[],"default_left":[0,0,0,0,0,0,0,0,0,0,0,0,0,0,0,0,0,0,0,0,0,0,0,0,0,0,0,0,0,0,0,0,0,0,0,0,0,0,0,0,0,0,0],"id":2,"left_children":[1,3,5,7,9,11,13,15,17,19,21,23,25,27,-1,-1,-1,29,31,33,35,37,39,41,-1,-1,-1,-1,-1,-1,-1,-1,-1,-1,-1,-1,-1,-1,-1,-1,-1,-1,-1],"loss_changes":[6.1936764E1,7.647396E0,6.736229E0,1.2480602E0,4.6018112E-1,6.0580444E-1,2.3323555E0,7.0373535E-2,7.915306E-2,5.1476493E-2,4.3332696E-2,7.27911E-2,6.308079E-2,2.3334503E-2,0E0,0E0,0E0,8.426905E-3,7.4204206E-3,4.1599832E-3,7.5599067E-3,6.566614E-3,1.8092394E-3,1.8992424E-3,0E0,0E0,0E0,0E0,0E0,0E0,0E0,0E0,0E0,0E0,0E0,0E0,0E0,0E0,0E0,0E0,0E0,0E0,0E0],"parents":[2147483647,0,0,1,1,2,2,3,3,4,4,5,5,6,6,7,7,8,8,9,9,10,10,11,11,12,12,13,13,17,17,18,18,19,19,20,20,21,21,22,22,23,23],"right_children":[2,4,6,8,10,12,14,16,18,20,22,24,26,28,-1,-1,-1,30,32,34,36,38,40,42,-1,-1,-1,-1,-1,-1,-1,-1,-1,-1,-1,-1,-1,-1,-1,-1,-1,-1,-1],"split_conditions":[2.9507425E-1,1.2183486E-1,5.131599E-1,4.338908E-2,2.1243237E-1,4.0465218E-1,6.6919005E-1,1.898048E-2,8.3871916E-2,1.7383628E-1,2.4843502E-1,3.4407637E-1,4.4331875E-1,5.713141E-1,5.7848167E-2,-1.3436141E-2,-1.0946491E-2,7.05617E-2,1.0218585E-1,1.45024E-1,1.8482524E-1,2.2580858E-1,2.6795965E-1,2.986458E-1,1.7200427E-2,2.1315975E-2,2.6838988E-2,3.0555764E-2,3.6173128E-2,-8.775335E-3,-7.4146837E-3,-6.210539E-3,-4.66931E-3,-2.7079375E-3,-1.0644228E-3,9.833537E-4,2.5903143E-3,4.1529327E-3,6.0797515E-3,7.2234753E-3,8.822643E-3,1.0008116E-2,1.3464734E-2],"split_indices":[0,1,4,4,0,1,4,4,1,0,4,4,4,0,0,0,0,0,1,0,4,4,1,4,0,0,0,0,0,0,0,0,0,0,0,0,0,0,0,0,0,0,0],"split_type":[0,0,0,0,0,0,0,0,0,0,0,0,0,0,0,0,0,0,0,0,0,0,0,0,0,0,0,0,0,0,0,0,0,0,0,0,0,0,0,0,0,0,0],"sum_hessian":[2.729E3,2.092E3,6.37E2,1.659E3,4.33E2,3.73E2,2.64E2,1.072E3,5.87E2,2.03E2,2.3E2,2.11E2,1.62E2,2.06E2,5.8E1,9.06E2,1.66E2,3.48E2,2.39E2,8.2E1,1.21E2,9.9E1,1.31E2,1.01E2,1.1E2,1E2,6.2E1,6.5E1,1.41E2,2.16E2,1.32E2,1.79E2,6E1,2.1E1,6.1E1,6.7E1,5.4E1,4.5E1,5.4E1,5.9E1,7.2E1,1.8E1,8.3E1],"tree_param":{"num_deleted":"0","num_feature":"5","num_nodes":"43","size_leaf_vector":"1"}},{"base_weights":[-7.832982E-4,-7.295795E-2,2.4972026E-1,-1.0058287E-1,3.357282E-2,1.7053297E-1,3.485873E-1,-1.18094996E-1,-6.7751504E-2,1.20060926E-4,6.1080996E-2,1.3755372E-1,2.1080412E-1,3.1340927E-1,5.3999938E-2,-1.2122751E-2,-1.0061952E-2,-7.782573E-2,-5.628893E-2,-1.7022626E-2,1.2938766E-2,4.065673E-2,7.018694E-2,1.1517292E-2,1.5538389E-2,1.9169815E-2,2.3879321E-2,2.9190496E-2,3.5163406E-2,-8.319888E-3,-7.281656E-3,-6.177909E-3,-4.8627337E-3,-2.7525732E-3,-1.0288827E-3,5.785578E-4,1.8352208E-3,3.4695168E-3,4.717591E-3,6.2570157E-3,7.926206E-3],"categories":[],"categories_nodes":[],"categories_segments":[],"categories_sizes":[],"default_left":[0,0,0,0,0,0,0,0,0,0,0,0,0,0,0,0,0,0,0,0,0,0,0,0,0,0,0,0,0,0,0,0,0,0,0,0,0,0,0,0,0],"id":3,"left_children":[1,3,5,7,9,11,13,15,17,19,21,23,25,27,-1,-1,-1,29,31,33,35,37,39,-1,-1,-1,-1,-1,-1,-1,-1,-1,-1,-1,-1,-1,-1,-1,-1,-1,-1],"loss_changes":[4.9792473E1,6.2953043E0,4.7632294E0,9.682598E-1,4.058116E-1,4.278736E-1,1.6690063E0,4.834652E-2,6.409693E-2,4.4169657E-2,4.2154133E-2,5.872178E-2,3.6041737E-2,8.888245E-2,0E0,0E0,0E0,2.3661852E-3,8.815646E-3,5.7992134E-3,4.3470114E-3,1.3557822E-3,6.515026E-3,0E0,0E0,0E0,0E0,0E0,0E0,0E0,0E0,0E0,0E0,0E0,0E0,0E0,0E0,0E0,0E0,0E0,0E0],"parents":[2147483647,0,0,1,1,2,2,3,3,4,4,5,5,6,6,7,7,8,8,9,9,10,10,11,11,12,12,13,13,17,17,18,18,19,19,20,20,21,21,22,22],"right_children":[2,4,6,8,10,12,14,16,18,20,22,24,26,28,-1,-1,-1,30,32,34,36,38,40,-1,-1,-1,-1,-1,-1,-1,-1,-1,-1,-1,-1,-1,-1,-1,-1,-1,-1],"split_conditions":[2.9507425E-1,1.049573E-1,5.160829E-1,3.5046518E-2,2.0390378E-1,4.0444317E-1,8.40887E-1,1.5690954E-2,7.674565E-2,1.6036305E-1,2.4162267E-1,3.592033E-1,4.6865052E-1,6.169756E-1,5.3999938E-2,-1.2122751E-2,-1.0061952E-2,5.441342E-2,8.534246E-2,1.2559132E-1,1.7911905E-1,2.176417E-1,2.6795965E-1,1.1517292E-2,1.5538389E-2,1.9169815E-2,2.3879321E-2,2.9190496E-2,3.5163406E-2,-8.319888E-3,-7.281656E-3,-6.177909E-3,-4.8627337E-3,-2.7525732E-3,-1.0288827E-3,5.785578E-4,1.8352208E-3,3.4695168E-3,4.717591E-3,6.2570157E-3,7.926206E-3],"split_indices":[0,4,1,4,4,0,0,0,1,1,0,0,0,4,0,0,0,4,4,4,4,4,1,0,0,0,0,0,0,0,0,0,0,0,0,0,0,0,0,0,0],"split_type":[0,0,0,0,0,0,0,0,0,0,0,0,0,0,0,0,0,0,0,0,0,0,0,0,0,0,0,0,0,0,0,0,0,0,0,0,0,0,0,0,0],"sum_hessian":[2.752E3,2.137E3,6.15E2,1.697E3,4.4E2,3.43E2,2.72E2,1.105E3,5.92E2,1.99E2,2.41E2,1.91E2,1.52E2,2.32E2,4E1,9.32E2,1.73E2,3.12E2,2.8E2,8.5E1,1.14E2,7.6E1,1.65E2,8.8E1,1.03E2,9.5E1,5.7E1,1.54E2,7.8E1,1.43E2,1.69E2,1.59E2,1.21E2,3.2E1,5.3E1,5E1,6.4E1,4.3E1,3.3E1,9.4E1,7.1E1],"tree_param":{"num_deleted":"0","num_feature":"5","num_nodes":"41","size_leaf_vector":"1"}},{"base_weights":[3.3871278E-5,-6.5275274E-2,2.2602251E-1,-9.0348415E-2,2.9075872E-2,1.4553665E-1,3.1113613E-1,-1.0647864E-1,-6.0796082E-2,-1.18153905E-4,5.4958466E-2,1.1431018E-1,1.7327385E-1,2.7710956E-1,4.876804E-2,-1.0877418E-2,-8.754729E-3,-7.1318835E-2,-5.179759E-2,-1.3413366E-2,1.2332073E-2,3.6663868E-2,6.3989505E-2,9.097218E-3,1.2289642E-2,1.5342578E-2,1.897614E-2,2.4782566E-2,3.01266E-2,-7.830247E-3,-6.8175765E-3,-5.670685E-3,-4.4522113E-3,-2.54724E-3,-8.1086624E-4,7.9831417E-4,1.9456297E-3,3.1505749E-3,4.3211873E-3,5.517197E-3,7.055127E-3],"categories":[],"categories_nodes":[],"categories_segments":[],"categories_sizes":[],"default_left":[0,0,0,0,0,0,0,0,0,0,0,0,0,0,0,0,0,0,0,0,0,0,0,0,0,0,0,0,0,0,0,0,0,0,0,0,0,0,0,0,0],"id":4,"left_children":[1,3,5,7,9,11,13,15,17,19,21,23,25,27,-1,-1,-1,29,31,33,35,37,39,-1,-1,-1,-1,-1,-1,-1,-1,-1,-1,-1,-1,-1,-1,-1,-1,-1,-1],"loss_changes":[4.0617107E1,5.0533524E0,4.181444E0,7.9769516E-1,3.3927858E-1,2.5648975E-1,1.6610088E0,3.7844658E-2,5.292988E-2,3.525744E-2,3.69761E-2,1.9478917E-2,2.553606E-2,1.0430908E-1,0E0,0E0,0E0,6.5398216E-4,9.119093E-3,6.382322E-3,3.252782E-3,1.3743863E-3,5.2492023E-3,0E0,0E0,0E0,0E0,0E0,0E0,0E0,0E0,0E0,0E0,0E0,0E0,0E0,0E0,0E0,0E0,0E0,0E0],"parents":[2147483647,0,0,1,1,2,2,3,3,4,4,5,5,6,6,7,7,8,8,9,9,10,10,11,11,12,12,13,13,17,17,18,18,19,19,20,20,21,21,22,22],"right_children":[2,4,6,8,10,12,14,16,18,20,22,24,26,28,-1,-1,-1,30,32,34,36,38,40,-1,-1,-1,-1,-1,-1,-1,-1,-1,-1,-1,-1,-1,-1,-1,-1,-1,-1],"split_conditions":[2.8305724E-1,1.1868099E-1,4.9826995E-1,4.0311478E-2,2.0390378E-1,3.7194178E-1,8.231532E-1,2.0886471E-2,7.45146E-2,1.6821161E-1,2.4123602E-1,3.2852092E-1,4.1120252E-1,5.7747865E-1,4.876804E-2,-1.0877418E-2,-8.754729E-3,5.1381912E-2,9.180703E-2,1.2559132E-1,1.8482524E-1,2.176417E-1,2.5923178E-1,9.097218E-3,1.2289642E-2,1.5342578E-2,1.897614E-2,2.4782566E-2,3.01266E-2,-7.830247E-3,-6.8175765E-3,-5.670685E-3,-4.4522113E-3,-2.54724E-3,-8.1086624E-4,7.9831417E-4,1.9456297E-3,3.1505749E-3,4.3211873E-3,5.517197E-3,7.055127E-3],"split_indices":[4,0,1,1,4,4,1,4,0,1,4,0,4,4,0,0,0,4,0,4,4,4,4,0,0,0,0,0,0,0,0,0,0,0,0,0,0,0,0,0,0],"split_type":[0,0,0,0,0,0,0,0,0,0,0,0,0,0,0,0,0,0,0,0,0,0,0,0,0,0,0,0,0,0,0,0,0,0,0,0,0,0,0,0,0],"sum_hessian":[2.75E3,2.134E3,6.16E2,1.686E3,4.48E2,3.18E2,2.98E2,1.089E3,5.97E2,2.11E2,2.37E2,1.52E2,1.66E2,2.52E2,4.6E1,9.67E2,1.22E2,2.72E2,3.25E2,1.02E2,1.09E2,8E1,1.57E2,4.4E1,1.08E2,8E1,8.6E1,1.19E2,1.33E2,7.7E1,1.95E2,1.9E2,1.35E2,3E1,7.2E1,6.9E1,4E1,4.8E1,3.2E1,7.1E1,8.6E1],"tree_param":{"num_deleted":"0","num_feature":"5","num_nodes":"41","size_leaf_vector":"1"}},{"base_weights":[4.906754E-4,-5.8233116E-2,2.0616825E-1,-8.071981E-2,2.8862419E-2,1.5002736E-1,3.0424324E-1,-9.5100775E-2,-5.2888084E-2,4.287954E-3,5.3082287E-2,1.20080784E-1,1.9240274E-1,2.652883E-2,4.4198614E-2,-9.778655E-3,-7.7206227E-3,-6.0170088E-2,-4.238189E-2,-1.0485716E-2,1.4179519E-2,4.039763E-2,6.205296E-2,9.87932E-3,1.3569589E-2,1.6550137E-2,2.0745868E-2,-6.421198E-3,-5.483673E-3,-4.622526E-3,-3.558093E-3,-1.8267522E-3,-6.145687E-4,9.108917E-4,2.335109E-3,3.1542256E-3,4.4889967E-3,5.5252514E-3,6.663849E-3],"categories":[],"categories_nodes":[],"categories_segments":[],"categories_sizes":[],"default_left":[0,0,0,0,0,0,0,0,0,0,0,0,0,0,0,0,0,0,0,0,0,0,0,0,0,0,0,0,0,0,0,0,0,0,0,0,0,0,0],"id":5,"left_children":[1,3,5,7,9,11,13,15,17,19,21,23,25,-1,-1,-1,-1,27,29,31,33,35,37,-1,-1,-1,-1,-1,-1,-1,-1,-1,-1,-1,-1,-1,-1,-1,-1],"loss_changes":[3.300956E1,4.166081E0,3.2965088E0,6.713896E-1,2.5987062E-1,4.692669E-1,1.0632133E0,4.5941353E-2,4.1670322E-2,3.200605E-2,2.252698E-2,6.3048124E-2,3.0064583E-2,0E0,0E0,0E0,0E0,3.786683E-3,4.628539E-3,2.8597806E-3,5.8795027E-3,2.3235232E-3,2.783835E-4,0E0,0E0,0E0,0E0,0E0,0E0,0E0,0E0,0E0,0E0,0E0,0E0,0E0,0E0,0E0,0E0],"parents":[2147483647,0,0,1,1,2,2,3,3,4,4,5,5,6,6,7,7,8,8,9,9,10,10,11,11,12,12,17,17,18,18,19,19,20,20,21,21,22,22],"right_children":[2,4,6,8,10,12,14,16,18,20,22,24,26,-1,-1,-1,-1,28,30,32,34,36,38,-1,-1,-1,-1,-1,-1,-1,-1,-1,-1,-1,-1,-1,-1,-1,-1],"split_conditions":[2.8798822E-1,1.259477E-1,5.5963576E-1,5.097953E-2,2.1640639E-1,4.3341073E-1,8.517414E-1,2.9484715E-2,8.3871916E-2,1.7383628E-1,2.5069472E-1,3.5250372E-1,4.5769444E-1,2.652883E-2,4.4198614E-2,-9.778655E-3,-7.7206227E-3,6.842191E-2,1.0027713E-1,1.5149875E-1,1.9221848E-1,2.3093015E-1,2.6591462E-1,9.87932E-3,1.3569589E-2,1.6550137E-2,2.0745868E-2,-6.421198E-3,-5.483673E-3,-4.622526E-3,-3.558093E-3,-1.8267522E-3,-6.145687E-4,9.108917E-4,2.335109E-3,3.1542256E-3,4.4889967E-3,5.5252514E-3,6.663849E-3],"split_indices":[4,0,0,0,0,0,4,0,1,0,4,4,4,0,0,0,0,0,0,0,4,2,4,0,0,0,0,0,0,0,0,0,0,0,0,0,0,0,0],"split_type":[0,0,0,0,0,0,0,0,0,0,0,0,0,0,0,0,0,0,0,0,0,0,0,0,0,0,0,0,0,0,0,0,0,0,0,0,0,0,0],"sum_hessian":[2.731E3,2.125E3,6.06E2,1.689E3,4.36E2,3.87E2,2.19E2,1.112E3,5.77E2,2.17E2,2.19E2,2.29E2,1.58E2,1.73E2,4.6E1,9.63E2,1.49E2,3.38E2,2.39E2,8.7E1,1.3E2,9.3E1,1.26E2,1E2,1.29E2,6.1E1,9.7E1,1.86E2,1.52E2,1.49E2,9E1,3E1,5.7E1,8.5E1,4.5E1,3.4E1,5.9E1,5.6E1,7E1],"tree_param":{"num_deleted":"0","num_feature":"5","num_nodes":"39","size_leaf_vector":"1"}},{"base_weights":[6.9521536E-4,-5.50818E-2,1.739142E-1,-7.318314E-2,2.1119496E-2,1.12563446E-1,2.5100365E-1,-8.646641E-2,-5.014918E-2,-7.2632125E-4,3.9891846E-2,8.185786E-2,1.3676037E-1,2.2155713E-1,3.801661E-2,-8.861747E-3,-7.416453E-3,-5.8167964E-2,-4.1305225E-2,-1.26337055E-2,7.960617E-3,2.6792899E-2,4.7414415E-2,6.5632435E-3,9.329337E-3,1.1997082E-2,1.5088448E-2,1.9710306E-2,2.3693752E-2,-6.5281927E-3,-5.50735E-3,-4.4988864E-3,-3.5094314E-3,-2.0306557E-3,-7.6782104E-4,3.6292805E-4,1.2144534E-3,2.3178263E-3,3.1001575E-3,4.2401203E-3,5.2235094E-3],"categories":[],"categories_nodes":[],"categories_segments":[],"categories_sizes":[],"default_left":[0,0,0,0,0,0,0,0,0,0,0,0,0,0,0,0,0,0,0,0,0,0,0,0,0,0,0,0,0,0,0,0,0,0,0,0,0,0,0,0,0],"id":6,"left_children":[1,3,5,7,9,11,13,15,17,19,21,23,25,27,-1,-1,-1,29,31,33,35,37,39,-1,-1,-1,-1,-1,-1,-1,-1,-1,-1,-1,-1,-1,-1,-1,-1,-1,-1],"loss_changes":[2.6298893E1,2.8416176E0,3.107401E0,5.047922E-1,1.6242754E-1,2.6445103E-1,1.0301628E0,2.1318436E-2,4.0928125E-2,1.9133294E-2,1.971811E-2,2.4677634E-2,3.0748367E-2,4.3941498E-2,0E0,0E0,0E0,3.4050941E-3,5.1475167E-3,2.8098589E-3,1.8949723E-3,4.9845874E-4,1.0235608E-3,0E0,0E0,0E0,0E0,0E0,0E0,0E0,0E0,0E0,0E0,0E0,0E0,0E0,0E0,0E0,0E0,0E0,0E0],"parents":[2147483647,0,0,1,1,2,2,3,3,4,4,5,5,6,6,7,7,8,8,9,9,10,10,11,11,12,12,13,13,17,17,18,18,19,19,20,20,21,21,22,22],"right_children":[2,4,6,8,10,12,14,16,18,20,22,24,26,28,-1,-1,-1,30,32,34,36,38,40,-1,-1,-1,-1,-1,-1,-1,-1,-1,-1,-1,-1,-1,-1,-1,-1,-1,-1],"split_conditions":[2.7183464E-1,1.049573E-1,4.8559386E-1,3.8395766E-2,1.9622378E-1,3.5784313E-1,6.671931E-1,1.10455E-2,7.578346E-2,1.6036305E-1,2.3891139E-1,3.0689633E-1,4.180688E-1,5.6782174E-1,3.801661E-2,-8.861747E-3,-7.416453E-3,5.685593E-2,8.631543E-2,1.3562566E-1,1.7911905E-1,2.149033E-1,2.541208E-1,6.5632435E-3,9.329337E-3,1.1997082E-2,1.5088448E-2,1.9710306E-2,2.3693752E-2,-6.5281927E-3,-5.50735E-3,-4.4988864E-3,-3.5094314E-3,-2.0306557E-3,-7.6782104E-4,3.6292805E-4,1.2144534E-3,2.3178263E-3,3.1001575E-3,4.2401203E-3,5.2235094E-3],"split_indices":[4,4,4,0,4,4,0,0,0,1,0,4,0,1,0,0,0,1,4,1,4,4,4,0,0,0,0,0,0,0,0,0,0,0,0,0,0,0,0,0,0],"split_type":[0,0,0,0,0,0,0,0,0,0,0,0,0,0,0,0,0,0,0,0,0,0,0,0,0,0,0,0,0,0,0,0,0,0,0,0,0,0,0,0,0],"sum_hessian":[2.72E3,2.058E3,6.62E2,1.663E3,3.95E2,3.7E2,2.92E2,1.053E3,6.1E2,1.83E2,2.12E2,1.65E2,2.05E2,2.4E2,5.2E1,8.91E2,1.62E2,3.17E2,2.93E2,7.7E1,1.06E2,7.9E1,1.33E2,7.1E1,9.4E1,9.8E1,1.07E2,9.8E1,1.42E2,9E1,2.27E2,1.8E2,1.13E2,2.9E1,4.8E1,5.3E1,5.3E1,4.6E1,3.3E1,7E1,6.3E1],"tree_param":{"num_deleted":"0","num_feature":"5","num_nodes":"41","size_leaf_vector":"1"}},{"base_weights":[1.0617784E-3,-4.8213214E-2,1.5709764E-1,-6.583296E-2,1.916958E-2,1.0343553E-1,2.2647929E-1,-7.79294E-2,-4.4779927E-2,-1.2581504E-3,3.7126668E-2,7.907124E-2,1.2686582E-1,1.9847491E-1,3.492207E-2,-8.000319E-3,-6.7789364E-3,-5.2865062E-2,-3.7878532E-2,-1.1516374E-2,7.440328E-3,2.4769068E-2,4.415151E-2,6.177084E-3,8.945596E-3,1.1435979E-2,1.4247577E-2,1.7192923E-2,2.1073721E-2,-5.906114E-3,-5.0525684E-3,-4.166981E-3,-3.2408503E-3,-1.8349584E-3,-7.1517646E-4,3.5110404E-4,1.1101215E-3,2.1535836E-3,2.8286418E-3,3.8282254E-3,4.791319E-3],"categories":[],"categories_nodes":[],"categories_segments":[],"categories_sizes":[],"default_left":[0,0,0,0,0,0,0,0,0,0,0,0,0,0,0,0,0,0,0,0,0,0,0,0,0,0,0,0,0,0,0,0,0,0,0,0,0,0,0,0,0],"id":7,"left_children":[1,3,5,7,9,11,13,15,17,19,21,23,25,27,-1,-1,-1,29,31,33,35,37,39,-1,-1,-1,-1,-1,-1,-1,-1,-1,-1,-1,-1,-1,-1,-1,-1,-1,-1],"loss_changes":[2.1143717E1,2.4826522E0,2.4338627E0,4.184928E-1,1.5924767E-1,2.0347166E-1,9.1719246E-1,1.6677856E-2,3.1867385E-2,1.8288795E-2,1.8959582E-2,2.789092E-2,2.0602703E-2,4.058838E-2,0E0,0E0,0E0,1.0309219E-3,5.5139363E-3,2.6722513E-3,1.5577222E-3,3.6885217E-4,1.3892055E-3,0E0,0E0,0E0,0E0,0E0,0E0,0E0,0E0,0E0,0E0,0E0,0E0,0E0,0E0,0E0,0E0,0E0,0E0],"parents":[2147483647,0,0,1,1,2,2,3,3,4,4,5,5,6,6,7,7,8,8,9,9,10,10,11,11,12,12,13,13,17,17,18,18,19,19,20,20,21,21,22,22],"right_children":[2,4,6,8,10,12,14,16,18,20,22,24,26,28,-1,-1,-1,30,32,34,36,38,40,-1,-1,-1,-1,-1,-1,-1,-1,-1,-1,-1,-1,-1,-1,-1,-1,-1,-1],"split_conditions":[2.752498E-1,1.049573E-1,5.089281E-1,3.3503223E-2,1.9622378E-1,3.7194178E-1,6.7284477E-1,9.558429E-3,7.3806845E-2,1.6036305E-1,2.386416E-1,3.2852092E-1,4.2009833E-1,5.5963576E-1,3.492207E-2,-8.000319E-3,-6.7789364E-3,5.4423835E-2,9.180703E-2,1.2559132E-1,1.7911905E-1,2.149033E-1,2.541208E-1,6.177084E-3,8.945596E-3,1.1435979E-2,1.4247577E-2,1.7192923E-2,2.1073721E-2,-5.906114E-3,-5.0525684E-3,-4.166981E-3,-3.2408503E-3,-1.8349584E-3,-7.1517646E-4,3.5110404E-4,1.1101215E-3,2.1535836E-3,2.8286418E-3,3.8282254E-3,4.791319E-3],"split_indices":[4,4,0,4,4,4,2,0,0,1,4,0,4,0,0,0,0,1,0,4,4,4,4,0,0,0,0,0,0,0,0,0,0,0,0,0,0,0,0,0,0],"split_type":[0,0,0,0,0,0,0,0,0,0,0,0,0,0,0,0,0,0,0,0,0,0,0,0,0,0,0,0,0,0,0,0,0,0,0,0,0,0,0,0,0],"sum_hessian":[2.748E3,2.089E3,6.59E2,1.656E3,4.33E2,3.73E2,2.86E2,1.05E3,6.06E2,2.03E2,2.3E2,1.85E2,1.88E2,2.35E2,5.1E1,8.66E2,1.84E2,2.76E2,3.3E2,9.3E1,1.1E2,8.5E1,1.45E2,7.2E1,1.13E2,1.09E2,7.9E1,7.9E1,1.56E2,6.9E1,2.07E2,1.91E2,1.39E2,3.5E1,5.8E1,5.4E1,5.6E1,4.8E1,3.7E1,6.1E1,8.4E1],"tree_param":{"num_deleted":"0","num_feature":"5","num_nodes":"41","size_leaf_vector":"1"}},{"base_weights":[6.1559107E-4,-4.3293864E-2,1.4557038E-1,-5.9123866E-2,1.9830944E-2,1.0331459E-1,2.18185E-1,-6.946613E-2,-3.855314E-2,1.2675318E-3,3.57254E-2,8.0947004E-2,1.3217525E-1,1.886933E-1,3.0961022E-2,-7.1354754E-2,-5.6144437E-3,-4.3624293E-2,-2.9953348E-2,-8.030551E-3,8.4788315E-3,2.6604349E-2,4.2660452E-2,6.32671E-2,9.124055E-3,1.1605618E-2,1.4715867E-2,1.7728059E-2,2.0983957E-2,-7.2597372E-3,-6.6561005E-3,-4.701473E-3,-3.974652E-3,-3.2284425E-3,-2.3539083E-3,-1.3697672E-3,-4.484267E-4,4.5442846E-4,1.1813034E-3,2.189967E-3,3.164387E-3,3.800638E-3,4.6658213E-3,5.2329837E-3,6.7941467E-3],"categories":[],"categories_nodes":[],"categories_segments":[],"categories_sizes":[],"default_left":[0,0,0,0,0,0,0,0,0,0,0,0,0,0,0,0,0,0,0,0,0,0,0,0,0,0,0,0,0,0,0,0,0,0,0,0,0,0,0,0,0,0,0,0,0],"id":8,"left_children":[1,3,5,7,9,11,13,15,17,19,21,23,25,27,-1,29,-1,31,33,35,37,39,41,43,-1,-1,-1,-1,-1,-1,-1,-1,-1,-1,-1,-1,-1,-1,-1,-1,-1,-1,-1,-1,-1],"loss_changes":[1.7630672E1,2.1256118E0,1.9534998E0,3.5899353E-1,1.2594335E-1,2.5332832E-1,5.7790184E-1,2.4424076E-2,2.3595095E-2,1.3344239E-2,1.3413668E-2,3.663087E-2,2.5670052E-2,6.4811707E-3,0E0,1.0409355E-3,0E0,2.8249025E-3,2.4547726E-3,1.6870345E-3,1.4155991E-3,1.7253682E-3,6.2684715E-4,9.947121E-4,0E0,0E0,0E0,0E0,0E0,0E0,0E0,0E0,0E0,0E0,0E0,0E0,0E0,0E0,0E0,0E0,0E0,0E0,0E0,0E0,0E0],"parents":[2147483647,0,0,1,1,2,2,3,3,4,4,5,5,6,6,7,7,8,8,9,9,10,10,11,11,12,12,13,13,15,15,17,17,18,18,19,19,20,20,21,21,22,22,23,23],"right_children":[2,4,6,8,10,12,14,16,18,20,22,24,26,28,-1,30,-1,32,34,36,38,40,42,44,-1,-1,-1,-1,-1,-1,-1,-1,-1,-1,-1,-1,-1,-1,-1,-1,-1,-1,-1,-1,-1],"split_conditions":[2.8069347E-1,1.12625346E-1,5.4450005E-1,5.097953E-2,2.0390378E-1,4.081376E-1,6.6071916E-1,2.4845194E-2,8.557815E-2,1.617019E-1,2.4610168E-1,3.323238E-1,4.4331875E-1,6.256568E-1,3.0961022E-2,5.918953E-3,-5.6144437E-3,6.8111844E-2,1.0522741E-1,1.3700011E-1,1.82163E-1,2.2580858E-1,2.6829574E-1,2.986458E-1,9.124055E-3,1.1605618E-2,1.4715867E-2,1.7728059E-2,2.0983957E-2,-7.2597372E-3,-6.6561005E-3,-4.701473E-3,-3.974652E-3,-3.2284425E-3,-2.3539083E-3,-1.3697672E-3,-4.484267E-4,4.5442846E-4,1.1813034E-3,2.189967E-3,3.164387E-3,3.800638E-3,4.6658213E-3,5.2329837E-3,6.7941467E-3],"split_indices":[4,4,0,0,4,0,1,4,0,4,4,4,4,4,0,0,0,1,0,4,4,4,0,4,0,0,0,0,0,0,0,0,0,0,0,0,0,0,0,0,0,0,0,0,0],"split_type":[0,0,0,0,0,0,0,0,0,0,0,0,0,0,0,0,0,0,0,0,0,0,0,0,0,0,0,0,0,0,0,0,0,0,0,0,0,0,0,0,0,0,0,0,0],"sum_hessian":[2.768E3,2.125E3,6.43E2,1.699E3,4.26E2,4.08E2,2.35E2,1.129E3,5.7E2,1.97E2,2.29E2,2.32E2,1.76E2,1.8E2,5.5E1,9.85E2,1.44E2,3.56E2,2.14E2,8.6E1,1.11E2,1.01E2,1.28E2,8.8E1,1.44E2,8.9E1,8.7E1,1.23E2,5.7E1,7.71E2,2.14E2,1.84E2,1.72E2,1.54E2,6E1,3.2E1,5.4E1,5.2E1,5.9E1,5.5E1,4.6E1,6.4E1,6.4E1,3E1,5.8E1],"tree_param":{"num_deleted":"0","num_feature":"5","num_nodes":"45","size_leaf_vector":"1"}},{"base_weights":[4.2334414E-4,-3.8236782E-2,1.3579752E-1,-5.299676E-2,1.9412827E-2,9.6334495E-2,1.9711003E-1,-6.335348E-2,-3.6181375E-2,1.1832211E-3,3.390003E-2,7.5414985E-2,1.2121044E-1,1.7117217E-1,2.9666761E-2,-6.499819E-3,-5.59437E-3,-4.196317E-2,-2.8923752E-2,-7.4369838E-3,7.329946E-3,2.508838E-2,4.016734E-2,6.3912584E-3,8.696944E-3,1.0711892E-2,1.3537303E-2,1.5995728E-2,1.9189898E-2,-4.600221E-3,-3.8394888E-3,-3.0621965E-3,-2.1203617E-3,-1.169965E-3,-4.6453904E-4,4.7641151E-4,1.1492899E-3,1.9699472E-3,2.9163207E-3,3.5078109E-3,4.321513E-3],"categories":[],"categories_nodes":[],"categories_segments":[],"categories_sizes":[],"default_left":[0,0,0,0,0,0,0,0,0,0,0,0,0,0,0,0,0,0,0,0,0,0,0,0,0,0,0,0,0,0,0,0,0,0,0,0,0,0,0,0,0],"id":9,"left_children":[1,3,5,7,9,11,13,15,17,19,21,23,25,27,-1,-1,-1,29,31,33,35,37,39,-1,-1,-1,-1,-1,-1,-1,-1,-1,-1,-1,-1,-1,-1,-1,-1,-1,-1],"loss_changes":[1.4135864E1,1.7887847E0,1.4327574E0,2.8906393E-1,1.13257095E-1,1.8184304E-1,5.534792E-1,8.965492E-3,2.5641978E-2,1.01748435E-2,1.2191117E-2,2.1288037E-2,1.8627882E-2,1.300478E-2,0E0,0E0,0E0,3.335774E-3,3.113404E-3,8.9762174E-4,1.1415672E-3,1.6653091E-3,6.245971E-4,0E0,0E0,0E0,0E0,0E0,0E0,0E0,0E0,0E0,0E0,0E0,0E0,0E0,0E0,0E0,0E0,0E0,0E0],"parents":[2147483647,0,0,1,1,2,2,3,3,4,4,5,5,6,6,7,7,8,8,9,9,10,10,11,11,12,12,13,13,17,17,18,18,19,19,20,20,21,21,22,22],"right_children":[2,4,6,8,10,12,14,16,18,20,22,24,26,28,-1,-1,-1,30,32,34,36,38,40,-1,-1,-1,-1,-1,-1,-1,-1,-1,-1,-1,-1,-1,-1,-1,-1,-1,-1],"split_conditions":[2.8798822E-1,1.12625346E-1,5.455314E-1,3.71664E-2,2.0567617E-1,4.0674272E-1,8.517414E-1,8.118557E-3,8.0080934E-2,1.7383628E-1,2.4980603E-1,3.5250372E-1,4.5769444E-1,6.256568E-1,2.9666761E-2,-6.499819E-3,-5.59437E-3,5.3876203E-2,1.0381134E-1,1.4700943E-1,1.8997538E-1,2.2959664E-1,2.6270345E-1,6.3912584E-3,8.696944E-3,1.0711892E-2,1.3537303E-2,1.5995728E-2,1.9189898E-2,-4.600221E-3,-3.8394888E-3,-3.0621965E-3,-2.1203617E-3,-1.169965E-3,-4.6453904E-4,4.7641151E-4,1.1492899E-3,1.9699472E-3,2.9163207E-3,3.5078109E-3,4.321513E-3],"split_indices":[4,4,1,1,1,4,4,1,0,0,0,4,4,4,0,0,0,4,1,1,0,1,4,0,0,0,0,0,0,0,0,0,0,0,0,0,0,0,0,0,0],"split_type":[0,0,0,0,0,0,0,0,0,0,0,0,0,0,0,0,0,0,0,0,0,0,0,0,0,0,0,0,0,0,0,0,0,0,0,0,0,0,0,0,0],"sum_hessian":[2.699E3,2.1E3,5.99E2,1.672E3,4.28E2,3.66E2,2.33E2,1.033E3,6.39E2,1.9E2,2.38E2,2.01E2,1.65E2,1.87E2,4.6E1,8.39E2,1.94E2,3.53E2,2.86E2,7.9E1,1.11E2,1.01E2,1.37E2,1.04E2,9.7E1,8.7E1,7.8E1,1.27E2,6E1,1.6E2,1.93E2,2.32E2,5.4E1,3E1,4.9E1,7E1,4.1E1,4.6E1,5.5E1,5.6E1,8.1E1],"tree_param":{"num_deleted":"0","num_feature":"5","num_nodes":"41","size_leaf_vector":"1"}},{"base_weights":[3.666437E-5,-3.5528917E-2,1.18813284E-1,-4.7639024E-2,1.7458448E-2,8.474752E-2,1.7854176E-1,-5.618262E-2,-3.0778637E-2,2.642015E-3,2.9908523E-2,6.5488644E-2,1.084573E-1,1.5667962E-1,2.6946455E-2,-5.7893846E-2,-4.5328834E-3,-3.481873E-2,-2.342106E-2,-4.3031313E-3,7.8254705E-3,2.1878837E-2,3.4445312E-2,5.2834053E-2,7.442716E-3,9.568903E-3,1.2191045E-2,1.4612486E-2,1.7818827E-2,-5.9506674E-3,-5.521606E-3,-3.7637935E-3,-3.1813334E-3,-2.4969985E-3,-1.6860785E-3,-7.3811994E-4,-3.1061343E-5,5.909195E-4,1.2815748E-3,1.822342E-3,2.5254446E-3,3.0466109E-3,3.6962598E-3,4.0820595E-3,5.505458E-3],"categories":[],"categories_nodes":[],"categories_segments":[],"categories_sizes":[],"default_left":[0,0,0,0,0,0,0,0,0,0,0,0,0,0,0,0,0,0,0,0,0,0,0,0,0,0,0,0,0,0,0,0,0,0,0,0,0,0,0,0,0,0,0,0,0],"id":10,"left_children":[1,3,5,7,9,11,13,15,17,19,21,23,25,27,-1,29,-1,31,33,35,37,39,41,43,-1,-1,-1,-1,-1,-1,-1,-1,-1,-1,-1,-1,-1,-1,-1,-1,-1,-1,-1,-1,-1],"loss_changes":[1.1604313E1,1.3573487E0,1.272831E0,2.4617791E-1,7.260047E-2,1.7782998E-1,4.1297913E-1,1.8568039E-2,1.6454935E-2,6.549649E-3,7.0421696E-3,2.163136E-2,1.925373E-2,1.641512E-2,0E0,9.5534325E-4,0E0,1.9629598E-3,1.702711E-3,9.5626793E-4,9.187949E-4,5.2691996E-4,2.2616982E-4,3.402233E-4,0E0,0E0,0E0,0E0,0E0,0E0,0E0,0E0,0E0,0E0,0E0,0E0,0E0,0E0,0E0,0E0,0E0,0E0,0E0,0E0,0E0],"parents":[2147483647,0,0,1,1,2,2,3,3,4,4,5,5,6,6,7,7,8,8,9,9,10,10,11,11,12,12,13,13,15,15,17,17,18,18,19,19,20,20,21,21,22,22,23,23],"right_children":[2,4,6,8,10,12,14,16,18,20,22,24,26,28,-1,30,-1,32,34,36,38,40,42,44,-1,-1,-1,-1,-1,-1,-1,-1,-1,-1,-1,-1,-1,-1,-1,-1,-1,-1,-1,-1,-1],"split_conditions":[2.8069347E-1,1.3395925E-1,5.41706E-1,4.639647E-2,2.1243237E-1,4.0083978E-1,8.355776E-1,2.9349476E-2,8.702508E-2,1.6916238E-1,2.4610168E-1,3.3895317E-1,4.757436E-1,6.331953E-1,2.6946455E-2,4.576656E-3,-4.5328834E-3,6.939079E-2,1.008919E-1,1.5569498E-1,1.9221848E-1,2.2982958E-1,2.6279232E-1,3.0599096E-1,7.442716E-3,9.568903E-3,1.2191045E-2,1.4612486E-2,1.7818827E-2,-5.9506674E-3,-5.521606E-3,-3.7637935E-3,-3.1813334E-3,-2.4969985E-3,-1.6860785E-3,-7.3811994E-4,-3.1061343E-5,5.909195E-4,1.2815748E-3,1.822342E-3,2.5254446E-3,3.0466109E-3,3.6962598E-3,4.0820595E-3,5.505458E-3],"split_indices":[4,0,4,4,0,4,2,1,0,4,4,4,0,4,0,0,0,0,4,0,4,0,0,0,0,0,0,0,0,0,0,0,0,0,0,0,0,0,0,0,0,0,0,0,0],"split_type":[0,0,0,0,0,0,0,0,0,0,0,0,0,0,0,0,0,0,0,0,0,0,0,0,0,0,0,0,0,0,0,0,0,0,0,0,0,0,0,0,0,0,0,0,0],"sum_hessian":[2.745E3,2.113E3,6.32E2,1.72E3,3.93E2,4.04E2,2.28E2,1.14E3,5.8E2,1.8E2,2.13E2,2.25E2,1.79E2,1.86E2,4.2E1,9.81E2,1.59E2,3.72E2,2.08E2,7.7E1,1.03E2,7.9E1,1.34E2,9.6E1,1.29E2,9.6E1,8.3E1,1.3E2,5.6E1,5.99E2,3.82E2,1.86E2,1.86E2,1.66E2,4.2E1,4.3E1,3.4E1,7.6E1,2.7E1,4.1E1,3.8E1,5.7E1,7.7E1,1.8E1,7.8E1],"tree_param":{"num_deleted":"0","num_feature":"5","num_nodes":"45","size_leaf_vector":"1"}},{"base_weights":[3.5851405E-4,-3.2398853E-2,1.0225905E-1,-4.2818476E-2,1.3126924E-2,6.931649E-2,1.5289842E-1,-5.066803E-2,-2.7894327E-2,8.890538E-4,2.4007294E-2,5.141185E-2,8.6461134E-2,1.3282393E-1,2.3295833E-1,-5.241217E-3,-4.246497E-3,-3.1910263E-2,-2.1854594E-2,-5.5731097E-3,4.5742476E-3,1.5605293E-3,2.7889058E-2,4.0582637E-3,5.8960407E-3,7.673166E-3,9.92228E-3,1.2218564E-2,1.4796003E-2,1.8865477E-2,2.5688479E-2,-3.4408444E-3,-2.93324E-3,-2.3522377E-3,-1.7101314E-3,-9.362288E-4,-3.5573667E-4,1.3752321E-4,6.7939126E-4,2.4525626E-3,3.0291246E-3],"categories":[],"categories_nodes":[],"categories_segments":[],"categories_sizes":[],"default_left":[0,0,0,0,0,0,0,0,0,0,0,0,0,0,0,0,0,0,0,0,0,0,0,0,0,0,0,0,0,0,0,0,0,0,0,0,0,0,0,0,0],"id":11,"left_children":[1,3,5,7,9,11,13,15,17,19,21,23,25,27,29,-1,-1,31,33,35,37,-1,39,-1,-1,-1,-1,-1,-1,-1,-1,-1,-1,-1,-1,-1,-1,-1,-1,-1,-1],"loss_changes":[9.28961E0,9.9956703E-1,1.1187668E0,1.9937825E-1,5.2307606E-2,1.2202573E-1,3.965621E-1,1.3826847E-2,1.3685942E-2,4.4549573E-3,6.3486174E-3,1.428324E-2,1.8336892E-2,1.6541481E-2,6.658554E-3,0E0,0E0,1.270473E-3,1.5003234E-3,4.860796E-4,8.356455E-4,0E0,3.9631128E-4,0E0,0E0,0E0,0E0,0E0,0E0,0E0,0E0,0E0,0E0,0E0,0E0,0E0,0E0,0E0,0E0,0E0,0E0],"parents":[2147483647,0,0,1,1,2,2,3,3,4,4,5,5,6,6,7,7,8,8,9,9,10,10,11,11,12,12,13,13,14,14,17,17,18,18,19,19,20,20,22,22],"right_children":[2,4,6,8,10,12,14,16,18,20,22,24,26,28,30,-1,-1,32,34,36,38,-1,40,-1,-1,-1,-1,-1,-1,-1,-1,-1,-1,-1,-1,-1,-1,-1,-1,-1,-1],"split_conditions":[2.7183464E-1,1.271867E-1,5.071269E-1,4.4619065E-2,1.9622378E-1,3.863218E-1,6.671931E-1,2.2900838E-3,8.597939E-2,1.6036305E-1,2.2580858E-1,3.2852092E-1,4.4291854E-1,5.9735936E-1,8.9074075E-1,-5.241217E-3,-4.246497E-3,6.781812E-2,1.0522741E-1,1.5149875E-1,1.7621748E-1,1.5605293E-3,2.5069472E-1,4.0582637E-3,5.8960407E-3,7.673166E-3,9.92228E-3,1.2218564E-2,1.4796003E-2,1.8865477E-2,2.5688479E-2,-3.4408444E-3,-2.93324E-3,-2.3522377E-3,-1.7101314E-3,-9.362288E-4,-3.5573667E-4,1.3752321E-4,6.7939126E-4,2.4525626E-3,3.0291246E-3],"split_indices":[4,1,4,4,4,0,0,3,1,1,4,0,0,4,4,0,0,0,0,0,4,0,4,0,0,0,0,0,0,0,0,0,0,0,0,0,0,0,0,0,0],"split_type":[0,0,0,0,0,0,0,0,0,0,0,0,0,0,0,0,0,0,0,0,0,0,0,0,0,0,0,0,0,0,0,0,0,0,0,0,0,0,0,0,0],"sum_hessian":[2.781E3,2.105E3,6.76E2,1.713E3,3.92E2,4.11E2,2.65E2,1.121E3,5.92E2,1.85E2,2.07E2,2.03E2,2.08E2,2.14E2,5.1E1,9.2E2,2.01E2,3.53E2,2.39E2,6.7E1,1.18E2,6.7E1,1.4E2,8.6E1,1.17E2,1.22E2,8.6E1,1.31E2,8.3E1,2.1E1,3E1,1.73E2,1.8E2,1.74E2,6.5E1,2.2E1,4.5E1,4.9E1,6.9E1,6.3E1,7.7E1],"tree_param":{"num_deleted":"0","num_feature":"5","num_nodes":"41","size_leaf_vector":"1"}},{"base_weights":[1.9235641E-4,-2.8437428E-2,9.79646E-2,-3.871733E-2,1.4290367E-2,6.927781E-2,1.4515561E-1,-4.6500053E-2,-2.6797825E-2,3.1564315E-3,2.57363E-2,5.221924E-2,8.624306E-2,1.2395617E-1,2.0629363E-2,-4.7649243E-3,-4.213587E-3,-3.127066E-2,-2.0944245E-2,-2.482649E-3,9.093357E-3,2.0952368E-2,2.987732E-3,4.2008874E-3,5.842082E-3,7.5444253E-3,9.788341E-3,1.1521198E-2,1.3431211E-2,-3.462292E-3,-2.8668463E-3,-2.3100663E-3,-1.6166155E-3,-5.794965E-4,1.1264954E-4,5.70762E-4,1.1725574E-3,1.5544611E-3,2.2225333E-3],"categories":[],"categories_nodes":[],"categories_segments":[],"categories_sizes":[],"default_left":[0,0,0,0,0,0,0,0,0,0,0,0,0,0,0,0,0,0,0,0,0,0,0,0,0,0,0,0,0,0,0,0,0,0,0,0,0,0,0],"id":12,"left_children":[1,3,5,7,9,11,13,15,17,19,21,23,25,27,-1,-1,-1,29,31,33,35,37,-1,-1,-1,-1,-1,-1,-1,-1,-1,-1,-1,-1,-1,-1,-1,-1,-1],"loss_changes":[7.711778E0,9.3656826E-1,8.3468914E-1,1.5812635E-1,5.2678227E-2,1.0836363E-1,2.790103E-1,3.1981468E-3,1.7175049E-2,7.086602E-3,3.4153014E-3,1.0019958E-2,1.700151E-2,5.533695E-4,0E0,0E0,0E0,2.357155E-3,2.6970059E-3,1.3095823E-3,8.510109E-4,3.2913685E-4,0E0,0E0,0E0,0E0,0E0,0E0,0E0,0E0,0E0,0E0,0E0,0E0,0E0,0E0,0E0,0E0,0E0],"parents":[2147483647,0,0,1,1,2,2,3,3,4,4,5,5,6,6,7,7,8,8,9,9,10,10,11,11,12,12,13,13,17,17,18,18,19,19,20,20,21,21],"right_children":[2,4,6,8,10,12,14,16,18,20,22,24,26,28,-1,-1,-1,30,32,34,36,38,-1,-1,-1,-1,-1,-1,-1,-1,-1,-1,-1,-1,-1,-1,-1,-1,-1],"split_conditions":[2.930686E-1,1.3395925E-1,5.41706E-1,3.1681817E-2,2.203662E-1,3.924418E-1,6.671931E-1,6.7110085E-3,7.024009E-2,1.7621748E-1,2.541208E-1,3.4686148E-1,4.5483276E-1,6.011513E-1,2.0629363E-2,-4.7649243E-3,-4.213587E-3,5.95085E-2,1.0027713E-1,1.5929973E-1,1.9221848E-1,2.3093015E-1,2.987732E-3,4.2008874E-3,5.842082E-3,7.5444253E-3,9.788341E-3,1.1521198E-2,1.3431211E-2,-3.462292E-3,-2.8668463E-3,-2.3100663E-3,-1.6166155E-3,-5.794965E-4,1.1264954E-4,5.70762E-4,1.1725574E-3,1.5544611E-3,2.2225333E-3],"split_indices":[2,0,4,4,0,4,0,1,4,4,4,0,1,1,0,0,0,1,0,0,4,2,0,0,0,0,0,0,0,0,0,0,0,0,0,0,0,0,0],"split_type":[0,0,0,0,0,0,0,0,0,0,0,0,0,0,0,0,0,0,0,0,0,0,0,0,0,0,0,0,0,0,0,0,0,0,0,0,0,0,0],"sum_hessian":[2.753E3,2.13E3,6.23E2,1.717E3,4.13E2,3.89E2,2.34E2,1.037E3,6.8E2,2.1E2,2.03E2,1.96E2,1.93E2,1.76E2,5.8E1,8.13E2,2.24E2,3.83E2,2.97E2,1.08E2,1.02E2,9.7E1,1.06E2,7.7E1,1.19E2,1.04E2,8.9E1,1.02E2,7.4E1,1.62E2,2.21E2,2.02E2,9.5E1,5.6E1,5.2E1,4.6E1,5.6E1,2.1E1,7.6E1],"tree_param":{"num_deleted":"0","num_feature":"5","num_nodes":"39","size_leaf_vector":"1"}},{"base_weights":[4.237309E-4,-2.5318347E-2,8.7369494E-2,-3.451214E-2,1.279348E-2,6.143729E-2,1.2734011E-1,-4.084723E-2,-2.245125E-2,2.1167095E-3,2.2612207E-2,4.9135312E-2,7.707458E-2,1.1125958E-1,1.9448718E-2,-4.220704E-2,-3.299382E-3,-2.5395716E-2,-1.6655706E-2,-2.7408493E-3,6.809027E-3,1.7520864E-2,2.5831144E-2,3.9146454E-3,5.5074627E-3,6.866839E-3,8.546282E-3,1.037402E-2,1.2346043E-2,-4.3684025E-3,-4.021195E-3,-2.7323458E-3,-2.2918417E-3,-1.8253064E-3,-1.2690407E-3,-5.5987696E-4,-4.0467952E-5,4.7475417E-4,1.0246527E-3,1.3891017E-3,1.9414643E-3,2.2766197E-3,2.7801497E-3],"categories":[],"categories_nodes":[],"categories_segments":[],"categories_sizes":[],"default_left":[0,0,0,0,0,0,0,0,0,0,0,0,0,0,0,0,0,0,0,0,0,0,0,0,0,0,0,0,0,0,0,0,0,0,0,0,0,0,0,0,0,0,0],"id":13,"left_children":[1,3,5,7,9,11,13,15,17,19,21,23,25,27,-1,29,-1,31,33,35,37,39,41,-1,-1,-1,-1,-1,-1,-1,-1,-1,-1,-1,-1,-1,-1,-1,-1,-1,-1,-1,-1],"loss_changes":[6.1235924E0,7.4011946E-1,6.400051E-1,1.2905097E-1,4.303821E-2,6.950581E-2,2.4290276E-1,1.0504127E-2,9.6111E-3,4.531718E-3,3.0545965E-3,1.0658622E-2,5.8365464E-3,5.540848E-3,0E0,1.0310411E-3,0E0,1.2267232E-3,1.041498E-3,6.520397E-4,6.670761E-4,3.2148883E-4,1.4609843E-4,0E0,0E0,0E0,0E0,0E0,0E0,0E0,0E0,0E0,0E0,0E0,0E0,0E0,0E0,0E0,0E0,0E0,0E0,0E0,0E0],"parents":[2147483647,0,0,1,1,2,2,3,3,4,4,5,5,6,6,7,7,8,8,9,9,10,10,11,11,12,12,13,13,15,15,17,17,18,18,19,19,20,20,21,21,22,22],"right_children":[2,4,6,8,10,12,14,16,18,20,22,24,26,28,-1,30,-1,32,34,36,38,40,42,-1,-1,-1,-1,-1,-1,-1,-1,-1,-1,-1,-1,-1,-1,-1,-1,-1,-1,-1,-1],"split_conditions":[2.8305724E-1,1.18078336E-1,5.1899344E-1,5.2873313E-2,2.1640639E-1,4.0083978E-1,8.355776E-1,2.4845194E-2,8.096863E-2,1.7431308E-1,2.4980603E-1,3.3895317E-1,4.5483276E-1,6.154933E-1,1.9448718E-2,3.8549472E-3,-3.299382E-3,7.085826E-2,9.716059E-2,1.5643343E-1,1.9221848E-1,2.2982958E-1,2.6270345E-1,3.9146454E-3,5.5074627E-3,6.866839E-3,8.546282E-3,1.037402E-2,1.2346043E-2,-4.3684025E-3,-4.021195E-3,-2.7323458E-3,-2.2918417E-3,-1.8253064E-3,-1.2690407E-3,-5.5987696E-4,-4.0467952E-5,4.7475417E-4,1.0246527E-3,1.3891017E-3,1.9414643E-3,2.2766197E-3,2.7801497E-3],"split_indices":[4,4,4,0,0,4,2,4,4,4,0,4,1,0,0,0,0,1,4,1,4,0,4,0,0,0,0,0,0,0,0,0,0,0,0,0,0,0,0,0,0,0,0],"split_type":[0,0,0,0,0,0,0,0,0,0,0,0,0,0,0,0,0,0,0,0,0,0,0,0,0,0,0,0,0,0,0,0,0,0,0,0,0,0,0,0,0,0,0],"sum_hessian":[2.734E3,2.11E3,6.24E2,1.7E3,4.1E2,3.8E2,2.44E2,1.113E3,5.87E2,1.97E2,2.13E2,2.15E2,1.65E2,1.99E2,4.5E1,9.45E2,1.68E2,3.87E2,2E2,9.7E1,1E2,8.5E1,1.28E2,8.3E1,1.32E2,8.7E1,7.8E1,1.29E2,7E1,5.31E2,4.14E2,2.12E2,1.75E2,1.4E2,6E1,4.3E1,5.4E1,6.4E1,3.6E1,3.2E1,5.3E1,5.5E1,7.3E1],"tree_param":{"num_deleted":"0","num_feature":"5","num_nodes":"43","size_leaf_vector":"1"}},{"base_weights":[-6.505294E-5,-2.3069536E-2,7.777114E-2,-3.157355E-2,1.043024E-2,5.5314504E-2,1.1589315E-1,-3.7815537E-2,-2.2150453E-2,-6.6417025E-4,1.8554004E-2,4.3679204E-2,7.138285E-2,1.0093484E-1,1.660185E-1,-3.902939E-3,-3.534893E-3,-2.5998311E-2,-1.793005E-2,-6.218592E-3,3.044761E-3,1.2490124E-2,2.2189995E-2,3.5100654E-2,5.050909E-3,6.359365E-3,7.956006E-3,9.399629E-3,1.1144135E-2,1.4279209E-2,1.935055E-2,-2.869276E-3,-2.4079955E-3,-2.000418E-3,-1.4892364E-3,-8.419891E-4,-3.6611132E-4,4.5356155E-5,5.085329E-4,1.0477502E-3,1.4538263E-3,1.9972422E-3,2.4664474E-3,2.8291517E-3,3.7386143E-3],"categories":[],"categories_nodes":[],"categories_segments":[],"categories_sizes":[],"default_left":[0,0,0,0,0,0,0,0,0,0,0,0,0,0,0,0,0,0,0,0,0,0,0,0,0,0,0,0,0,0,0,0,0,0,0,0,0,0,0,0,0,0,0,0,0],"id":14,"left_children":[1,3,5,7,9,11,13,15,17,19,21,23,25,27,29,-1,-1,31,33,35,37,39,41,43,-1,-1,-1,-1,-1,-1,-1,-1,-1,-1,-1,-1,-1,-1,-1,-1,-1,-1,-1,-1,-1],"loss_changes":[4.952751E0,6.0855365E-1,5.3378344E-1,9.933078E-2,3.9037913E-2,7.14792E-2,1.5794396E-1,1.6833544E-3,1.0592967E-2,3.8095124E-3,5.234897E-3,1.1937231E-2,5.513668E-3,2.7928352E-3,5.567074E-3,0E0,0E0,1.138866E-3,1.7686635E-3,3.8577733E-4,5.8460794E-4,2.4339929E-4,3.579259E-4,6.0746074E-4,0E0,0E0,0E0,0E0,0E0,0E0,0E0,0E0,0E0,0E0,0E0,0E0,0E0,0E0,0E0,0E0,0E0,0E0,0E0,0E0,0E0],"parents":[2147483647,0,0,1,1,2,2,3,3,4,4,5,5,6,6,7,7,8,8,9,9,10,10,11,11,12,12,13,13,14,14,17,17,18,18,19,19,20,20,21,21,22,22,23,23],"right_children":[2,4,6,8,10,12,14,16,18,20,22,24,26,28,30,-1,-1,32,34,36,38,40,42,44,-1,-1,-1,-1,-1,-1,-1,-1,-1,-1,-1,-1,-1,-1,-1,-1,-1,-1,-1,-1,-1],"split_conditions":[2.8069347E-1,1.1868099E-1,5.3981435E-1,3.4364574E-2,1.9622378E-1,4.180688E-1,6.6919005E-1,4.9481434E-3,6.6569455E-2,1.5929973E-1,2.4162267E-1,3.592033E-1,4.5769444E-1,6.169756E-1,9.060705E-1,-3.902939E-3,-3.534893E-3,5.0830662E-2,8.4139585E-2,1.4700943E-1,1.7621748E-1,2.149033E-1,2.6270345E-1,2.986458E-1,5.050909E-3,6.359365E-3,7.956006E-3,9.399629E-3,1.1144135E-2,1.4279209E-2,1.935055E-2,-2.869276E-3,-2.4079955E-3,-2.000418E-3,-1.4892364E-3,-8.419891E-4,-3.6611132E-4,4.5356155E-5,5.085329E-4,1.0477502E-3,1.4538263E-3,1.9972422E-3,2.4664474E-3,2.8291517E-3,3.7386143E-3],"split_indices":[4,0,1,1,4,0,4,0,4,0,0,0,4,4,1,0,0,4,4,1,4,4,4,4,0,0,0,0,0,0,0,0,0,0,0,0,0,0,0,0,0,0,0,0,0],"split_type":[0,0,0,0,0,0,0,0,0,0,0,0,0,0,0,0,0,0,0,0,0,0,0,0,0,0,0,0,0,0,0,0,0,0,0,0,0,0,0,0,0,0,0,0,0],"sum_hessian":[2.764E3,2.134E3,6.3E2,1.702E3,4.32E2,3.98E2,2.32E2,1.022E3,6.8E2,1.83E2,2.49E2,2.33E2,1.65E2,1.81E2,5.1E1,6.75E2,3.47E2,3.53E2,3.27E2,7.3E1,1.1E2,9.5E1,1.54E2,1.06E2,1.27E2,8.9E1,7.6E1,1.15E2,6.6E1,3.1E1,2E1,1.41E2,2.12E2,1.91E2,1.36E2,3.8E1,3.5E1,4.9E1,6.1E1,5.1E1,4.4E1,8.6E1,6.8E1,3E1,7.6E1],"tree_param":{"num_deleted":"0","num_feature":"5","num_nodes":"45","size_leaf_vector":"1"}},{"base_weights":[2.9112538E-4,-2.0497411E-2,7.078512E-2,-2.8179266E-2,1.0497654E-2,5.0212067E-2,1.0533006E-1,-3.3233874E-2,-1.8082732E-2,1.1805719E-3,1.7726189E-2,3.8183883E-2,6.2106807E-2,9.3511425E-2,1.7376631E-2,-3.4366183E-2,-2.7113461E-3,-2.0583808E-2,-1.3553592E-2,-2.9908477E-3,4.2493716E-3,1.2358981E-2,2.053865E-2,3.0519438E-3,4.2511698E-2,5.3073075E-3,6.9124834E-3,8.58659E-3,1.1074933E-2,-3.5872478E-3,-3.3086648E-3,-2.298618E-3,-1.9167246E-3,-1.468305E-3,-1.0363368E-3,-4.3894732E-4,-1.3462537E-5,2.9191357E-4,7.01961E-4,1.0915761E-3,1.4474302E-3,1.8498393E-3,2.2978715E-3,3.7766595E-3,4.610942E-3],"categories":[],"categories_nodes":[],"categories_segments":[],"categories_sizes":[],"default_left":[0,0,0,0,0,0,0,0,0,0,0,0,0,0,0,0,0,0,0,0,0,0,0,0,0,0,0,0,0,0,0,0,0,0,0,0,0,0,0,0,0,0,0,0,0],"id":15,"left_children":[1,3,5,7,9,11,13,15,17,19,21,23,25,27,-1,29,-1,31,33,35,37,39,41,-1,43,-1,-1,-1,-1,-1,-1,-1,-1,-1,-1,-1,-1,-1,-1,-1,-1,-1,-1,-1,-1],"loss_changes":[4.015365E0,5.041144E-1,4.3818474E-1,8.595288E-2,2.8332941E-2,5.3855836E-2,1.7139769E-1,6.8924427E-3,6.155163E-3,2.3809406E-3,3.3236966E-3,5.2702725E-3,8.757472E-3,1.6849041E-2,0E0,6.4206123E-4,0E0,7.98136E-4,5.864985E-4,3.149971E-4,3.7381146E-4,9.844266E-5,3.4159422E-4,0E0,3.7549436E-4,0E0,0E0,0E0,0E0,0E0,0E0,0E0,0E0,0E0,0E0,0E0,0E0,0E0,0E0,0E0,0E0,0E0,0E0,0E0,0E0],"parents":[2147483647,0,0,1,1,2,2,3,3,4,4,5,5,6,6,7,7,8,8,9,9,10,10,11,11,12,12,13,13,15,15,17,17,18,18,19,19,20,20,21,21,22,22,24,24],"right_children":[2,4,6,8,10,12,14,16,18,20,22,24,26,28,-1,30,-1,32,34,36,38,40,42,-1,44,-1,-1,-1,-1,-1,-1,-1,-1,-1,-1,-1,-1,-1,-1,-1,-1,-1,-1,-1,-1],"split_conditions":[2.9507425E-1,1.271867E-1,5.4450005E-1,5.1826287E-2,2.1012063E-1,4.0107685E-1,8.9074075E-1,1.9815724E-2,8.776239E-2,1.7383628E-1,2.4482132E-1,3.323238E-1,4.5128906E-1,6.331953E-1,1.7376631E-2,3.0415044E-3,-2.7113461E-3,6.5169506E-2,9.716059E-2,1.5355422E-1,1.9506969E-1,2.2982958E-1,2.6591462E-1,3.0519438E-3,3.7181428E-1,5.3073075E-3,6.9124834E-3,8.58659E-3,1.1074933E-2,-3.5872478E-3,-3.3086648E-3,-2.298618E-3,-1.9167246E-3,-1.468305E-3,-1.0363368E-3,-4.3894732E-4,-1.3462537E-5,2.9191357E-4,7.01961E-4,1.0915761E-3,1.4474302E-3,1.8498393E-3,2.2978715E-3,3.7766595E-3,4.610942E-3],"split_indices":[0,1,0,1,0,0,4,4,1,0,0,4,0,4,0,1,0,0,4,4,0,0,4,0,0,0,0,0,0,0,0,0,0,0,0,0,0,0,0,0,0,0,0,0,0],"split_type":[0,0,0,0,0,0,0,0,0,0,0,0,0,0,0,0,0,0,0,0,0,0,0,0,0,0,0,0,0,0,0,0,0,0,0,0,0,0,0,0,0,0,0,0,0],"sum_hessian":[2.738E3,2.115E3,6.23E2,1.695E3,4.2E2,3.92E2,2.31E2,1.128E3,5.67E2,1.84E2,2.36E2,1.97E2,1.95E2,1.99E2,3.2E1,9.48E2,1.8E2,3.63E2,2.04E2,7.8E1,1.06E2,8.3E1,1.53E2,7.4E1,1.23E2,8.9E1,1.06E2,1.42E2,5.7E1,4.23E2,5.25E2,1.29E2,2.34E2,1.48E2,5.6E1,5.2E1,2.6E1,7.3E1,3.3E1,5.3E1,3E1,8.8E1,6.5E1,5.8E1,6.5E1],"tree_param":{"num_deleted":"0","num_feature":"5","num_nodes":"45","size_leaf_vector":"1"}},{"base_weights":[1.09319975E-4,-1.9294322E-2,6.164642E-2,-2.5640862E-2,7.885371E-3,3.934617E-2,8.8159114E-2,-3.0581934E-2,-1.7753167E-2,7.394275E-5,1.4674399E-2,2.9155122E-2,4.8073653E-2,7.78429E-2,1.3535175E-1,-3.1488293E-3,-2.8050651E-3,-2.1144407E-2,-1.4508767E-2,-3.8235278E-3,3.0882696E-3,9.628283E-3,1.7165188E-2,2.2857871E-3,3.323089E-3,4.316516E-3,5.304649E-3,6.8930048E-3,8.523228E-3,1.1706367E-2,1.6191654E-2,-2.262609E-3,-1.9213442E-3,-1.5839564E-3,-1.1408986E-3,-6.376211E-4,-2.0622868E-4,1.3577064E-4,4.443842E-4,8.0804166E-4,1.0639292E-3,1.530371E-3,1.9020519E-3],"categories":[],"categories_nodes":[],"categories_segments":[],"categories_sizes":[],"default_left":[0,0,0,0,0,0,0,0,0,0,0,0,0,0,0,0,0,0,0,0,0,0,0,0,0,0,0,0,0,0,0,0,0,0,0,0,0,0,0,0,0,0,0],"id":16,"left_children":[1,3,5,7,9,11,13,15,17,19,21,23,25,27,29,-1,-1,31,33,35,37,39,41,-1,-1,-1,-1,-1,-1,-1,-1,-1,-1,-1,-1,-1,-1,-1,-1,-1,-1,-1,-1],"loss_changes":[3.312273E0,3.6399835E-1,3.8970566E-1,6.610203E-2,2.1211714E-2,3.0884385E-2,1.3697934E-1,1.5257597E-3,6.9658905E-3,2.208731E-3,2.5244541E-3,3.6036521E-3,2.4456084E-3,1.065588E-2,6.793916E-3,0E0,0E0,4.836917E-4,1.2259707E-3,3.5551342E-4,2.4263235E-4,2.8268434E-5,1.9933656E-4,0E0,0E0,0E0,0E0,0E0,0E0,0E0,0E0,0E0,0E0,0E0,0E0,0E0,0E0,0E0,0E0,0E0,0E0,0E0,0E0],"parents":[2147483647,0,0,1,1,2,2,3,3,4,4,5,5,6,6,7,7,8,8,9,9,10,10,11,11,12,12,13,13,14,14,17,17,18,18,19,19,20,20,21,21,22,22],"right_children":[2,4,6,8,10,12,14,16,18,20,22,24,26,28,30,-1,-1,32,34,36,38,40,42,-1,-1,-1,-1,-1,-1,-1,-1,-1,-1,-1,-1,-1,-1,-1,-1,-1,-1,-1,-1],"split_conditions":[2.752498E-1,1.12625346E-1,4.9366963E-1,3.5439998E-2,1.9622378E-1,3.5784313E-1,6.6071916E-1,5.627419E-3,7.24969E-2,1.6374822E-1,2.386416E-1,3.0689633E-1,4.1920567E-1,5.7231027E-1,9.152986E-1,-3.1488293E-3,-2.8050651E-3,5.973493E-2,8.843405E-2,1.3700011E-1,1.7911905E-1,2.1138425E-1,2.5883406E-1,2.2857871E-3,3.323089E-3,4.316516E-3,5.304649E-3,6.8930048E-3,8.523228E-3,1.1706367E-2,1.6191654E-2,-2.262609E-3,-1.9213442E-3,-1.5839564E-3,-1.1408986E-3,-6.376211E-4,-2.0622868E-4,1.3577064E-4,4.443842E-4,8.0804166E-4,1.0639292E-3,1.530371E-3,1.9020519E-3],"split_indices":[4,4,0,0,4,4,1,1,1,0,4,4,1,1,4,0,0,0,4,4,4,4,1,0,0,0,0,0,0,0,0,0,0,0,0,0,0,0,0,0,0,0,0],"split_type":[0,0,0,0,0,0,0,0,0,0,0,0,0,0,0,0,0,0,0,0,0,0,0,0,0,0,0,0,0,0,0,0,0,0,0,0,0,0,0,0,0,0,0],"sum_hessian":[2.772E3,2.108E3,6.64E2,1.709E3,3.99E2,3.62E2,3.02E2,1.049E3,6.6E2,1.86E2,2.13E2,1.69E2,1.93E2,2.5E2,5.2E1,7.64E2,2.85E2,3.2E2,3.4E2,8.1E1,1.05E2,7.2E1,1.41E2,6.9E1,1E2,1.02E2,9.1E1,1.18E2,1.32E2,3.4E1,1.8E1,1.75E2,1.45E2,2.35E2,1.05E2,3.2E1,4.9E1,4.7E1,5.8E1,3.2E1,4E1,7.5E1,6.6E1],"tree_param":{"num_deleted":"0","num_feature":"5","num_nodes":"43","size_leaf_vector":"1"}},{"base_weights":[3.8624776E-4,-1.63497E-2,5.923489E-2,-2.2979505E-2,7.95193E-3,4.9657423E-2,1.12149395E-1,-2.7603077E-2,-1.6081693E-2,5.183402E-4,1.4885706E-2,3.63727E-2,6.599203E-2,9.794497E-3,1.4890608E-2,-2.894606E-3,-2.6304724E-3,-1.9098496E-2,-1.3122871E-2,-4.6747895E-3,3.059885E-3,1.0995317E-2,1.7605443E-2,2.9424917E-2,4.2703333E-3,5.931217E-3,7.205076E-3,-2.099227E-3,-1.7648361E-3,-1.4314997E-3,-1.0159825E-3,-6.678252E-4,-3.5795625E-4,1.5339616E-4,5.480177E-4,9.3210133E-4,1.2720666E-3,1.5423383E-3,1.9211316E-3,2.493698E-3,3.1844506E-3],"categories":[],"categories_nodes":[],"categories_segments":[],"categories_sizes":[],"default_left":[0,0,0,0,0,0,0,0,0,0,0,0,0,0,0,0,0,0,0,0,0,0,0,0,0,0,0,0,0,0,0,0,0,0,0,0,0,0,0,0,0],"id":17,"left_children":[1,3,5,7,9,11,13,15,17,19,21,23,25,-1,-1,-1,-1,27,29,31,33,35,37,39,-1,-1,-1,-1,-1,-1,-1,-1,-1,-1,-1,-1,-1,-1,-1,-1,-1],"loss_changes":[2.7222133E0,3.4690237E-1,3.0458474E-1,5.3486407E-2,2.380508E-2,1.10440016E-1,3.397143E-2,1.0014772E-3,5.8281124E-3,2.9707847E-3,2.3352392E-3,1.1454791E-2,5.115986E-3,0E0,0E0,0E0,0E0,5.4950267E-4,1.080282E-3,1.3846904E-4,5.4926367E-4,1.7319527E-4,1.9076839E-4,7.37004E-4,0E0,0E0,0E0,0E0,0E0,0E0,0E0,0E0,0E0,0E0,0E0,0E0,0E0,0E0,0E0,0E0,0E0],"parents":[2147483647,0,0,1,1,2,2,3,3,4,4,5,5,6,6,7,7,8,8,9,9,10,10,11,11,12,12,17,17,18,18,19,19,20,20,21,21,22,22,23,23],"right_children":[2,4,6,8,10,12,14,16,18,20,22,24,26,-1,-1,-1,-1,28,30,32,34,36,38,40,-1,-1,-1,-1,-1,-1,-1,-1,-1,-1,-1,-1,-1,-1,-1,-1,-1],"split_conditions":[2.8798822E-1,1.1868099E-1,6.395184E-1,3.0061105E-2,2.0841561E-1,4.5483276E-1,9.152986E-1,3.5299286E-3,6.5427765E-2,1.5929973E-1,2.4843502E-1,3.863218E-1,5.650122E-1,9.794497E-3,1.4890608E-2,-2.894606E-3,-2.6304724E-3,5.0830662E-2,9.731302E-2,1.3395925E-1,1.8997538E-1,2.4119125E-1,2.704145E-1,3.266981E-1,4.2703333E-3,5.931217E-3,7.205076E-3,-2.099227E-3,-1.7648361E-3,-1.4314997E-3,-1.0159825E-3,-6.678252E-4,-3.5795625E-4,1.5339616E-4,5.480177E-4,9.3210133E-4,1.2720666E-3,1.5423383E-3,1.9211316E-3,2.493698E-3,3.1844506E-3],"split_indices":[4,0,4,4,4,1,4,1,4,0,4,0,0,0,0,0,0,4,0,0,0,1,0,4,0,0,0,0,0,0,0,0,0,0,0,0,0,0,0,0,0],"split_type":[0,0,0,0,0,0,0,0,0,0,0,0,0,0,0,0,0,0,0,0,0,0,0,0,0,0,0,0,0,0,0,0,0,0,0,0,0,0,0,0,0],"sum_hessian":[2.762E3,2.151E3,6.11E2,1.69E3,4.61E2,5.19E2,9.2E1,1.01E3,6.8E2,2.23E2,2.38E2,2.88E2,2.31E2,6.9E1,2.3E1,4.86E2,5.24E2,3.34E2,3.46E2,7.3E1,1.5E2,1E2,1.38E2,1.4E2,1.48E2,1.15E2,1.16E2,1.39E2,1.95E2,2.44E2,1.02E2,2.4E1,4.9E1,9.3E1,5.7E1,5.4E1,4.6E1,6.3E1,7.5E1,5.3E1,8.7E1],"tree_param":{"num_deleted":"0","num_feature":"5","num_nodes":"41","size_leaf_vector":"1"}},{"base_weights":[-5.831729E-5,-1.4835536E-2,5.3353712E-2,-2.0583916E-2,7.90078E-3,4.5341495E-2,1.0656116E-1,-2.4272224E-2,-1.3311893E-2,1.4481008E-3,1.3778563E-2,3.3264842E-2,6.092014E-2,9.017223E-3,1.3899623E-2,-2.5274107E-2,-2.0544782E-2,-1.5405757E-2,-1.0394518E-2,-2.1135393E-3,3.976089E-3,1.1270053E-2,1.6486518E-3,2.6086971E-2,3.9533466E-2,5.468442E-3,6.5301373E-3,-2.6560444E-3,-2.4432156E-3,-2.206098E-3,-1.9156234E-3,-1.695779E-3,-1.4460635E-3,-1.1148247E-3,-6.982039E-4,-3.6265922E-4,1.3069147E-5,2.4858685E-4,6.384153E-4,9.263088E-4,1.2698084E-3,2.1300192E-3,2.8673476E-3,3.6865268E-3,4.439938E-3],"categories":[],"categories_nodes":[],"categories_segments":[],"categories_sizes":[],"default_left":[0,0,0,0,0,0,0,0,0,0,0,0,0,0,0,0,0,0,0,0,0,0,0,0,0,0,0,0,0,0,0,0,0,0,0,0,0,0,0,0,0,0,0,0,0],"id":18,"left_children":[1,3,5,7,9,11,13,15,17,19,21,23,25,-1,-1,27,29,31,33,35,37,39,-1,41,43,-1,-1,-1,-1,-1,-1,-1,-1,-1,-1,-1,-1,-1,-1,-1,-1,-1,-1,-1,-1],"loss_changes":[2.1634219E0,2.807691E-1,2.4839616E-1,4.5648813E-2,1.6440561E-2,9.542894E-2,2.8397799E-2,3.723085E-3,3.3767298E-3,1.8811906E-3,1.3561882E-3,1.21973455E-2,2.5761127E-3,0E0,0E0,3.1608343E-4,9.530783E-5,2.4618953E-4,5.523227E-4,2.958947E-4,4.2193255E-4,2.2916216E-4,0E0,1.1225864E-3,3.7559867E-4,0E0,0E0,0E0,0E0,0E0,0E0,0E0,0E0,0E0,0E0,0E0,0E0,0E0,0E0,0E0,0E0,0E0,0E0,0E0,0E0],"parents":[2147483647,0,0,1,1,2,2,3,3,4,4,5,5,6,6,7,7,8,8,9,9,10,10,11,11,12,12,15,15,16,16,17,17,18,18,19,19,20,20,21,21,23,23,24,24],"right_children":[2,4,6,8,10,12,14,16,18,20,22,24,26,-1,-1,28,30,32,34,36,38,40,-1,42,44,-1,-1,-1,-1,-1,-1,-1,-1,-1,-1,-1,-1,-1,-1,-1,-1,-1,-1,-1,-1],"split_conditions":[2.8798822E-1,1.3395925E-1,6.474598E-1,4.639647E-2,2.1640639E-1,4.9366963E-1,9.048013E-1,8.601643E-3,7.6707415E-2,1.7675433E-1,2.5883406E-1,3.7194178E-1,5.557489E-1,9.017223E-3,1.3899623E-2,2.476901E-3,2.9471407E-2,6.397237E-2,1.008919E-1,1.5355422E-1,1.9221848E-1,2.4438396E-1,1.6486518E-3,3.4304133E-1,4.392723E-1,5.468442E-3,6.5301373E-3,-2.6560444E-3,-2.4432156E-3,-2.206098E-3,-1.9156234E-3,-1.695779E-3,-1.4460635E-3,-1.1148247E-3,-6.982039E-4,-3.6265922E-4,1.3069147E-5,2.4858685E-4,6.384153E-4,9.263088E-4,1.2698084E-3,2.1300192E-3,2.8673476E-3,3.6865268E-3,4.439938E-3],"split_indices":[4,0,4,4,0,0,0,4,4,0,1,4,4,0,0,0,4,0,4,4,4,1,0,0,1,0,0,0,0,0,0,0,0,0,0,0,0,0,0,0,0,0,0,0,0],"split_type":[0,0,0,0,0,0,0,0,0,0,0,0,0,0,0,0,0,0,0,0,0,0,0,0,0,0,0,0,0,0,0,0,0,0,0,0,0,0,0,0,0,0,0,0,0],"sum_hessian":[2.739E3,2.146E3,5.93E2,1.713E3,4.33E2,5.17E2,7.6E1,1.135E3,5.78E2,2.07E2,2.26E2,2.93E2,2.24E2,5.3E1,2.3E1,8.9E2,2.45E2,3.34E2,2.44E2,8.6E1,1.21E2,1.2E2,1.06E2,1.39E2,1.54E2,9.8E1,1.26E2,3.4E2,5.5E2,1.1E2,1.35E2,1.2E2,2.14E2,1.98E2,4.6E1,5.1E1,3.5E1,7.6E1,4.5E1,5.3E1,6.7E1,5.2E1,8.7E1,1.05E2,4.9E1],"tree_param":{"num_deleted":"0","num_feature":"5","num_nodes":"45","size_leaf_vector":"1"}},{"base_weights":[3.3632075E-4,-1.4423589E-2,4.429282E-2,-1.8810026E-2,4.040615E-3,2.9604876E-2,6.751554E-2,-2.2408573E-2,-1.3372803E-2,-9.717414E-4,9.91681E-3,2.2622844E-2,3.8866147E-2,5.8297843E-2,1.112843E-1,-2.3332716E-3,-2.1141383E-3,-1.6067095E-2,-1.1345253E-2,-4.8634093E-3,1.7018558E-3,6.5993015E-3,1.1589805E-2,1.6605112E-3,2.6116323E-2,3.5158035E-3,4.432184E-3,5.2457503E-3,6.413918E-3,9.722897E-3,1.354619E-2,-1.69796E-3,-1.4826896E-3,-1.2567096E-3,-9.4090356E-4,-6.200131E-4,-3.4161552E-4,7.635165E-6,2.9032375E-4,6.6593627E-4,1.437761E-4,9.712657E-4,1.2451989E-3,2.3626294E-3,2.8421672E-3],"categories":[],"categories_nodes":[],"categories_segments":[],"categories_sizes":[],"default_left":[0,0,0,0,0,0,0,0,0,0,0,0,0,0,0,0,0,0,0,0,0,0,0,0,0,0,0,0,0,0,0,0,0,0,0,0,0,0,0,0,0,0,0,0,0],"id":19,"left_children":[1,3,5,7,9,11,13,15,17,19,21,23,25,27,29,-1,-1,31,33,35,37,39,41,-1,43,-1,-1,-1,-1,-1,-1,-1,-1,-1,-1,-1,-1,-1,-1,-1,-1,-1,-1,-1,-1],"loss_changes":[1.7705488E0,1.6554281E-1,2.3199165E-1,3.200394E-2,1.1584897E-2,2.6408285E-2,1.0042584E-1,6.684363E-4,3.4231767E-3,2.2244889E-3,9.280965E-4,4.6748742E-3,2.0831823E-3,4.1749477E-3,2.1212697E-3,0E0,0E0,6.625056E-5,7.807389E-4,1.4712755E-4,2.477904E-4,9.955838E-6,7.165223E-5,0E0,2.0103902E-4,0E0,0E0,0E0,0E0,0E0,0E0,0E0,0E0,0E0,0E0,0E0,0E0,0E0,0E0,0E0,0E0,0E0,0E0,0E0,0E0],"parents":[2147483647,0,0,1,1,2,2,3,3,4,4,5,5,6,6,7,7,8,8,9,9,10,10,11,11,12,12,13,13,14,14,17,17,18,18,19,19,20,20,21,21,22,22,24,24],"right_children":[2,4,6,8,10,12,14,16,18,20,22,24,26,28,30,-1,-1,32,34,36,38,40,42,-1,44,-1,-1,-1,-1,-1,-1,-1,-1,-1,-1,-1,-1,-1,-1,-1,-1,-1,-1,-1,-1],"split_conditions":[2.743308E-1,1.06992096E-1,5.071269E-1,3.3779107E-2,1.9622378E-1,3.8818714E-1,8.40887E-1,4.204636E-3,6.003816E-2,1.5643343E-1,2.3093015E-1,3.1080806E-1,4.3705484E-1,5.9057E-1,9.4295233E-1,-2.3332716E-3,-2.1141383E-3,5.685593E-2,8.80904E-2,1.18078336E-1,1.7782183E-1,2.3891139E-1,2.4957466E-1,1.6605112E-3,3.47754E-1,3.5158035E-3,4.432184E-3,5.2457503E-3,6.413918E-3,9.722897E-3,1.354619E-2,-1.69796E-3,-1.4826896E-3,-1.2567096E-3,-9.4090356E-4,-6.200131E-4,-3.4161552E-4,7.635165E-6,2.9032375E-4,6.6593627E-4,1.437761E-4,9.712657E-4,1.2451989E-3,2.3626294E-3,2.8421672E-3],"split_indices":[0,1,4,0,4,4,0,0,4,1,2,1,4,1,4,0,0,1,0,4,0,0,1,0,4,0,0,0,0,0,0,0,0,0,0,0,0,0,0,0,0,0,0,0,0],"split_type":[0,0,0,0,0,0,0,0,0,0,0,0,0,0,0,0,0,0,0,0,0,0,0,0,0,0,0,0,0,0,0,0,0,0,0,0,0,0,0,0,0,0,0,0,0],"sum_hessian":[2.727E3,2.042E3,6.85E2,1.65E3,3.92E2,4.21E2,2.64E2,9.91E2,6.59E2,2.12E2,1.8E2,2.42E2,1.79E2,2.2E2,4.4E1,5.63E2,4.28E2,2.8E2,3.79E2,8.6E1,1.26E2,6.2E1,1.18E2,9.1E1,1.51E2,1.11E2,6.8E1,1.15E2,1.05E2,3.1E1,1.3E1,1.54E2,1.26E2,2.29E2,1.5E2,4.3E1,4.3E1,5.4E1,7.2E1,6.1E1,1E0,4.1E1,7.7E1,7.8E1,7.3E1],"tree_param":{"num_deleted":"0","num_feature":"5","num_nodes":"45","size_leaf_vector":"1"}},{"base_weights":[4.1920604E-4,-1.19334E-2,4.313127E-2,-1.6673956E-2,6.5234276E-3,3.2697234E-2,6.822318E-2,-1.9712746E-2,-1.0828792E-2,1.4407967E-3,1.141641E-2,2.5254283E-2,4.2063218E-2,5.744432E-3,9.837367E-2,-2.0592181E-2,-1.707006E-2,-1.2411799E-2,-7.901065E-3,-1.0642944E-3,3.8416954E-3,8.513968E-3,1.2839329E-2,2.0597784E-2,2.8575805E-3,3.586848E-3,4.517107E-3,8.703372E-3,1.204648E-2,-2.1665765E-3,-1.992517E-3,-1.8161581E-3,-1.5577701E-3,-1.3975996E-3,-1.1477598E-3,-8.541613E-4,-5.4734614E-4,-2.650465E-4,6.33853E-5,2.1516187E-4,4.894258E-4,6.861304E-4,9.442635E-4,1.1573784E-3,1.4634512E-3,4.658103E-4,2.0705229E-3],"categories":[],"categories_nodes":[],"categories_segments":[],"categories_sizes":[],"default_left":[0,0,0,0,0,0,0,0,0,0,0,0,0,0,0,0,0,0,0,0,0,0,0,0,0,0,0,0,0,0,0,0,0,0,0,0,0,0,0,0,0,0,0,0,0,0,0],"id":20,"left_children":[1,3,5,7,9,11,13,15,17,19,21,23,25,-1,27,29,31,33,35,37,39,41,43,45,-1,-1,-1,-1,-1,-1,-1,-1,-1,-1,-1,-1,-1,-1,-1,-1,-1,-1,-1,-1,-1,-1,-1],"loss_changes":[1.4487914E0,1.8647447E-1,1.5904427E-1,2.9893547E-2,1.0826534E-2,2.9401213E-2,5.284673E-2,2.2374988E-3,2.5992692E-3,1.2971996E-3,8.0753304E-4,3.216207E-3,2.0762384E-3,0E0,1.0390878E-3,1.6334653E-4,1.7970055E-4,3.8902834E-4,2.7513318E-4,2.871964E-4,1.8514949E-4,5.1854644E-5,1.6458891E-4,8.5089356E-5,0E0,0E0,0E0,0E0,0E0,0E0,0E0,0E0,0E0,0E0,0E0,0E0,0E0,0E0,0E0,0E0,0E0,0E0,0E0,0E0,0E0,0E0,0E0],"parents":[2147483647,0,0,1,1,2,2,3,3,4,4,5,5,6,6,7,7,8,8,9,9,10,10,11,11,12,12,14,14,15,15,16,16,17,17,18,18,19,19,20,20,21,21,22,22,23,23],"right_children":[2,4,6,8,10,12,14,16,18,20,22,24,26,-1,28,30,32,34,36,38,40,42,44,46,-1,-1,-1,-1,-1,-1,-1,-1,-1,-1,-1,-1,-1,-1,-1,-1,-1,-1,-1,-1,-1,-1,-1],"split_conditions":[3.0599096E-1,1.3395925E-1,5.809586E-1,4.7418498E-2,2.149033E-1,4.2009833E-1,8.517414E-1,7.4062725E-3,8.0516405E-2,1.7621748E-1,2.4980603E-1,3.5250372E-1,4.788419E-1,5.744432E-3,9.4295233E-1,2.333563E-3,3.1606674E-2,6.397237E-2,1.08496875E-1,1.5355422E-1,1.9506969E-1,2.4119125E-1,2.7622446E-1,2.8507954E-1,2.8575805E-3,3.586848E-3,4.517107E-3,8.703372E-3,1.204648E-2,-2.1665765E-3,-1.992517E-3,-1.8161581E-3,-1.5577701E-3,-1.3975996E-3,-1.1477598E-3,-8.541613E-4,-5.4734614E-4,-2.650465E-4,6.33853E-5,2.1516187E-4,4.894258E-4,6.861304E-4,9.442635E-4,1.1573784E-3,1.4634512E-3,4.658103E-4,2.0705229E-3],"split_indices":[0,0,0,1,4,4,4,1,4,4,0,4,4,0,4,1,0,0,0,4,0,1,1,2,0,0,0,0,0,0,0,0,0,0,0,0,0,0,0,0,0,0,0,0,0,0,0],"split_type":[0,0,0,0,0,0,0,0,0,0,0,0,0,0,0,0,0,0,0,0,0,0,0,0,0,0,0,0,0,0,0,0,0,0,0,0,0,0,0,0,0,0,0,0,0,0,0],"sum_hessian":[2.744E3,2.129E3,6.15E2,1.694E3,4.35E2,4.36E2,1.79E2,1.113E3,5.81E2,2.14E2,2.21E2,2.45E2,1.91E2,1.34E2,4.5E1,8.3E2,2.83E2,3.75E2,2.06E2,1.05E2,1.09E2,7.5E1,1.46E2,1.05E2,1.4E2,6.8E1,1.23E2,3.3E1,1.2E1,3.06E2,5.24E2,1.57E2,1.26E2,1.35E2,2.4E2,1.61E2,4.5E1,5.4E1,5.1E1,4.3E1,6.6E1,3E1,4.5E1,9E1,5.6E1,1E0,1.04E2],"tree_param":{"num_deleted":"0","num_feature":"5","num_nodes":"47","size_leaf_vector":"1"}},{"base_weights":[1.3297806E-4,-1.0668468E-2,3.88563E-2,-1.4956531E-2,5.857707E-3,3.3689626E-2,7.787074E-2,-1.7671222E-2,-9.653533E-3,1.0250702E-3,1.01606E-2,2.5101757E-2,4.4446014E-2,6.690593E-3,1.0084097E-2,-1.8408041E-2,-1.4861958E-2,-1.1006122E-2,-7.0435354E-3,-1.9125042E-3,2.7214868E-3,7.79249E-3,1.18291285E-2,1.952297E-2,2.9336888E-2,4.128499E-3,4.9167178E-3,-1.9497335E-3,-1.7823136E-3,-1.6037403E-3,-1.4021769E-3,-1.2274276E-3,-1.0277176E-3,-7.5957575E-4,-5.065682E-4,-3.4831086E-4,-1.2494897E-4,1.6113096E-4,4.134501E-4,6.4369495E-4,8.6163636E-4,1.0412562E-3,1.2850792E-3,1.6360873E-3,2.0967338E-3,2.6276624E-3,3.123086E-3],"categories":[],"categories_nodes":[],"categories_segments":[],"categories_sizes":[],"default_left":[0,0,0,0,0,0,0,0,0,0,0,0,0,0,0,0,0,0,0,0,0,0,0,0,0,0,0,0,0,0,0,0,0,0,0,0,0,0,0,0,0,0,0,0,0,0,0],"id":21,"left_children":[1,3,5,7,9,11,13,15,17,19,21,23,25,-1,-1,27,29,31,33,35,37,39,41,43,45,-1,-1,-1,-1,-1,-1,-1,-1,-1,-1,-1,-1,-1,-1,-1,-1,-1,-1,-1,-1,-1,-1],"loss_changes":[1.1276464E0,1.4947164E-1,1.159026E-1,2.3928314E-2,9.035113E-3,4.7011375E-2,1.0379881E-2,2.0157695E-3,1.9311905E-3,1.0317751E-3,8.166097E-4,6.326318E-3,1.4025867E-3,0E0,0E0,2.0807981E-4,7.212162E-6,2.1866336E-4,1.7668866E-4,7.478922E-5,1.9883714E-4,5.3982716E-5,5.8677047E-5,2.4612993E-4,1.2990832E-4,0E0,0E0,0E0,0E0,0E0,0E0,0E0,0E0,0E0,0E0,0E0,0E0,0E0,0E0,0E0,0E0,0E0,0E0,0E0,0E0,0E0,0E0],"parents":[2147483647,0,0,1,1,2,2,3,3,4,4,5,5,6,6,7,7,8,8,9,9,10,10,11,11,12,12,15,15,16,16,17,17,18,18,19,19,20,20,21,21,22,22,23,23,24,24],"right_children":[2,4,6,8,10,12,14,16,18,20,22,24,26,-1,-1,28,30,32,34,36,38,40,42,44,46,-1,-1,-1,-1,-1,-1,-1,-1,-1,-1,-1,-1,-1,-1,-1,-1,-1,-1,-1,-1,-1,-1],"split_conditions":[3.040342E-1,1.18078336E-1,6.407737E-1,4.639647E-2,2.1138425E-1,4.9366963E-1,9.152986E-1,8.875548E-3,8.776239E-2,1.6821161E-1,2.5069472E-1,3.863218E-1,5.8381504E-1,6.690593E-3,1.0084097E-2,2.1013014E-3,3.1606674E-2,5.753835E-2,1.008919E-1,1.3700011E-1,1.8889476E-1,2.4119125E-1,2.6964563E-1,3.4304133E-1,4.180688E-1,4.128499E-3,4.9167178E-3,-1.9497335E-3,-1.7823136E-3,-1.6037403E-3,-1.4021769E-3,-1.2274276E-3,-1.0277176E-3,-7.5957575E-4,-5.065682E-4,-3.4831086E-4,-1.2494897E-4,1.6113096E-4,4.134501E-4,6.4369495E-4,8.6163636E-4,1.0412562E-3,1.2850792E-3,1.6360873E-3,2.0967338E-3,2.6276624E-3,3.123086E-3],"split_indices":[1,4,1,4,4,0,4,4,1,1,4,0,4,0,0,1,0,4,4,4,4,1,4,0,0,0,0,0,0,0,0,0,0,0,0,0,0,0,0,0,0,0,0,0,0,0,0],"split_type":[0,0,0,0,0,0,0,0,0,0,0,0,0,0,0,0,0,0,0,0,0,0,0,0,0,0,0,0,0,0,0,0,0,0,0,0,0,0,0,0,0,0,0,0,0,0,0],"sum_hessian":[2.694E3,2.107E3,5.87E2,1.673E3,4.34E2,5.2E2,6.7E1,1.105E3,5.68E2,2.05E2,2.29E2,2.91E2,2.29E2,4.8E1,1.9E1,8.71E2,2.34E2,3.72E2,1.96E2,7.5E1,1.3E2,9.7E1,1.32E2,1.28E2,1.63E2,1.43E2,8.6E1,2.93E2,5.78E2,9E1,1.44E2,1.3E2,2.42E2,1.51E2,4.5E1,2.1E1,5.4E1,7.4E1,5.6E1,4E1,5.7E1,6E1,7.2E1,4.4E1,8.4E1,6.8E1,9.5E1],"tree_param":{"num_deleted":"0","num_feature":"5","num_nodes":"47","size_leaf_vector":"1"}},{"base_weights":[3.7965868E-4,-9.983316E-3,3.4395557E-2,-1.3734404E-2,4.3048174E-3,2.9330757E-2,7.046285E-2,-1.6383594E-2,-9.735336E-3,-4.7567784E-4,8.229308E-3,2.1792574E-2,3.9974574E-2,5.7009447E-2,8.626549E-3,-1.7433597E-3,-1.5744025E-2,-1.10530015E-2,-7.242867E-3,-3.0725412E-3,1.3508551E-3,5.9726518E-3,9.755876E-3,1.6130066E-2,2.562148E-2,3.6881942E-2,4.385092E-3,5.190228E-3,8.646493E-3,-1.6095026E-3,-1.4568968E-3,-1.2258907E-3,-1.0031767E-3,-7.8682555E-4,-5.896788E-4,-2.079752E-4,-4.2895632E-4,-3.020304E-4,1.5790762E-4,4.7183814E-4,6.884045E-4,8.468609E-4,1.0482589E-3,1.3784622E-3,1.7925724E-3,2.3875032E-3,2.93083E-3,1.3965745E-3,3.712707E-3],"categories":[],"categories_nodes":[],"categories_segments":[],"categories_sizes":[],"default_left":[0,0,0,0,0,0,0,0,0,0,0,0,0,0,0,0,0,0,0,0,0,0,0,0,0,0,0,0,0,0,0,0,0,0,0,0,0,0,0,0,0,0,0,0,0,0,0,0,0],"id":22,"left_children":[1,3,5,7,9,11,13,15,17,19,21,23,25,27,-1,-1,29,31,33,35,37,39,41,43,45,47,-1,-1,-1,-1,-1,-1,-1,-1,-1,-1,-1,-1,-1,-1,-1,-1,-1,-1,-1,-1,-1,-1,-1],"loss_changes":[9.4047654E-1,1.0966301E-1,1.1173898E-1,1.7003268E-2,7.996105E-3,4.3097675E-2,1.1239588E-2,3.7896633E-4,2.0481274E-3,9.195991E-4,7.4784644E-4,6.5897405E-3,1.0920167E-3,2.1313727E-3,0E0,0E0,1.9162893E-5,3.9672107E-4,1.446968E-4,8.77385E-5,1.1849463E-4,7.840223E-5,4.0322542E-5,3.1304732E-4,5.300939E-4,2.2299588E-4,0E0,0E0,0E0,0E0,0E0,0E0,0E0,0E0,0E0,0E0,0E0,0E0,0E0,0E0,0E0,0E0,0E0,0E0,0E0,0E0,0E0,0E0,0E0],"parents":[2147483647,0,0,1,1,2,2,3,3,4,4,5,5,6,6,7,7,8,8,9,9,10,10,11,11,12,12,13,13,16,16,17,17,18,18,19,19,20,20,21,21,22,22,23,23,24,24,25,25],"right_children":[2,4,6,8,10,12,14,16,18,20,22,24,26,28,-1,-1,30,32,34,36,38,40,42,44,46,48,-1,-1,-1,-1,-1,-1,-1,-1,-1,-1,-1,-1,-1,-1,-1,-1,-1,-1,-1,-1,-1,-1,-1],"split_conditions":[2.8069347E-1,1.09702885E-1,6.407737E-1,3.3147674E-2,2.0053382E-1,4.9366963E-1,8.9074075E-1,2.7738905E-3,8.170109E-2,1.5929973E-1,2.4482132E-1,3.7181428E-1,5.7747865E-1,3.020917E-1,8.626549E-3,-1.7433597E-3,7.4062725E-3,5.3128798E-2,8.9741215E-2,6.717821E-2,1.3700011E-1,2.203662E-1,2.5966617E-1,3.2015282E-1,4.392723E-1,4.4331875E-1,4.385092E-3,5.190228E-3,8.646493E-3,-1.6095026E-3,-1.4568968E-3,-1.2258907E-3,-1.0031767E-3,-7.8682555E-4,-5.896788E-4,-2.079752E-4,-4.2895632E-4,-3.020304E-4,1.5790762E-4,4.7183814E-4,6.884045E-4,8.468609E-4,1.0482589E-3,1.3784622E-3,1.7925724E-3,2.3875032E-3,2.93083E-3,1.3965745E-3,3.712707E-3],"split_indices":[4,0,1,1,0,0,4,1,1,0,0,0,4,3,0,0,1,4,4,3,4,0,0,4,1,4,0,0,0,0,0,0,0,0,0,0,0,0,0,0,0,0,0,0,0,0,0,0,0],"split_type":[0,0,0,0,0,0,0,0,0,0,0,0,0,0,0,0,0,0,0,0,0,0,0,0,0,0,0,0,0,0,0,0,0,0,0,0,0,0,0,0,0,0,0,0,0,0,0,0,0],"sum_hessian":[2.666E3,2.044E3,6.22E2,1.619E3,4.25E2,5.47E2,7.5E1,9.72E2,6.47E2,1.92E2,2.33E2,3.22E2,2.25E2,4.3E1,3.2E1,3.58E2,6.14E2,4.21E2,2.26E2,7.9E1,1.13E2,9.6E1,1.37E2,1.32E2,1.9E2,1.31E2,9.4E1,3.9E1,4E0,4.63E2,1.51E2,1.88E2,2.33E2,1.51E2,7.5E1,4.5E1,3.4E1,5E0,1.08E2,4.3E1,5.3E1,5.4E1,8.3E1,6.1E1,7.1E1,1.34E2,5.6E1,2E0,1.29E2],"tree_param":{"num_deleted":"0","num_feature":"5","num_nodes":"49","size_leaf_vector":"1"}},{"base_weights":[3.6975753E-4,-8.744316E-3,3.2328174E-2,-1.2243172E-2,4.7938647E-3,2.725156E-2,6.468427E-2,-1.458545E-2,-8.3797695E-3,6.4241735E-4,8.379682E-3,1.9757304E-2,3.4813426E-2,5.7969835E-2,9.3156565E-3,-1.507878E-2,-1.2756147E-3,-9.610289E-3,-6.2683527E-3,-1.4488079E-3,2.3578291E-3,5.873407E-3,9.510721E-3,1.7054018E-2,2.3856202E-2,3.0306112E-2,3.7826442E-3,5.2567527E-2,7.3913643E-3,-1.5967671E-3,-1.4619232E-3,-1.056493E-3,-8.646115E-4,-7.0991006E-4,-5.2389334E-4,-3.2389347E-4,-5.0150364E-5,1.3543908E-4,3.4290968E-4,5.9422053E-4,3.5675617E-5,8.459585E-4,1.093302E-3,1.382806E-3,1.8375911E-3,1.407591E-3,2.4207975E-3,1.758853E-3,3.0870698E-3,4.321137E-3,6.066979E-3],"categories":[],"categories_nodes":[],"categories_segments":[],"categories_sizes":[],"default_left":[0,0,0,0,0,0,0,0,0,0,0,0,0,0,0,0,0,0,0,0,0,0,0,0,0,0,0,0,0,0,0,0,0,0,0,0,0,0,0,0,0,0,0,0,0,0,0,0,0,0,0],"id":23,"left_children":[1,3,5,7,9,11,13,15,17,19,21,23,25,27,-1,29,-1,31,33,35,37,39,41,43,45,47,-1,49,-1,-1,-1,-1,-1,-1,-1,-1,-1,-1,-1,-1,-1,-1,-1,-1,-1,-1,-1,-1,-1,-1,-1],"loss_changes":[8.0069643E-1,1.0137914E-1,9.843546E-2,1.5261352E-2,6.544602E-3,2.9290885E-2,1.0276109E-2,7.6155365E-4,1.6129576E-3,7.388151E-4,6.131269E-4,2.5627315E-3,2.411753E-3,2.057761E-3,0E0,1.04382634E-4,0E0,2.8143823E-4,1.6805343E-4,1.5608454E-4,1.16825104E-4,2.6724767E-5,1.4821067E-4,4.495196E-4,1.706183E-5,2.468452E-4,0E0,1.5476942E-3,0E0,0E0,0E0,0E0,0E0,0E0,0E0,0E0,0E0,0E0,0E0,0E0,0E0,0E0,0E0,0E0,0E0,0E0,0E0,0E0,0E0,0E0,0E0],"parents":[2147483647,0,0,1,1,2,2,3,3,4,4,5,5,6,6,7,7,8,8,9,9,10,10,11,11,12,12,13,13,15,15,17,17,18,18,19,19,20,20,21,21,22,22,23,23,24,24,25,25,27,27],"right_children":[2,4,6,8,10,12,14,16,18,20,22,24,26,28,-1,30,-1,32,34,36,38,40,42,44,46,48,-1,50,-1,-1,-1,-1,-1,-1,-1,-1,-1,-1,-1,-1,-1,-1,-1,-1,-1,-1,-1,-1,-1,-1,-1],"split_conditions":[3.040342E-1,1.259477E-1,6.407737E-1,3.7104495E-2,2.1138425E-1,4.3705484E-1,9.4295233E-1,7.178953E-3,8.437578E-2,1.7675433E-1,2.4776985E-1,3.9724785E-1,5.41706E-1,2.1959244E-1,9.3156565E-3,1.8321194E-3,-1.2756147E-3,5.5922918E-2,8.843405E-2,1.3700011E-1,1.8889476E-1,1.4306745E-1,2.7622446E-1,3.4686148E-1,3.832727E-1,5.905789E-2,3.7826442E-3,8.231532E-1,7.3913643E-3,-1.5967671E-3,-1.4619232E-3,-1.056493E-3,-8.646115E-4,-7.0991006E-4,-5.2389334E-4,-3.2389347E-4,-5.0150364E-5,1.3543908E-4,3.4290968E-4,5.9422053E-4,3.5675617E-5,8.459585E-4,1.093302E-3,1.382806E-3,1.8375911E-3,1.407591E-3,2.4207975E-3,1.758853E-3,3.0870698E-3,4.321137E-3,6.066979E-3],"split_indices":[1,0,1,0,4,4,4,1,0,0,0,0,4,3,0,1,0,4,4,4,4,3,1,0,4,3,0,1,0,0,0,0,0,0,0,0,0,0,0,0,0,0,0,0,0,0,0,0,0,0,0],"split_type":[0,0,0,0,0,0,0,0,0,0,0,0,0,0,0,0,0,0,0,0,0,0,0,0,0,0,0,0,0,0,0,0,0,0,0,0,0,0,0,0,0,0,0,0,0,0,0,0,0,0,0],"sum_hessian":[2.747E3,2.138E3,6.09E2,1.699E3,4.39E2,5.28E2,8.1E1,1.056E3,6.43E2,2.04E2,2.35E2,2.67E2,2.61E2,6.8E1,1.3E1,8.26E2,2.3E2,4.04E2,2.39E2,9.2E1,1.12E2,7.5E1,1.6E2,1.64E2,1.03E2,1.09E2,1.52E2,5.4E1,1.4E1,2.7E2,5.56E2,1.98E2,2.06E2,1.29E2,1.1E2,3.1E1,6.1E1,5.9E1,5.3E1,7.4E1,1E0,9.6E1,6.4E1,5.1E1,1.13E2,5E0,9.8E1,6E0,1.03E2,2.8E1,2.6E1],"tree_param":{"num_deleted":"0","num_feature":"5","num_nodes":"51","size_leaf_vector":"1"}},{"base_weights":[3.6907126E-4,-7.819248E-3,2.8761737E-2,-1.095798E-2,4.479463E-3,2.3615012E-2,5.3584225E-2,-1.2903003E-2,-7.0623485E-3,9.001783E-4,7.4110096E-3,1.71087E-2,3.0418433E-2,4.452606E-2,7.042839E-2,-1.3488943E-2,-1.0930659E-2,-7.931502E-3,-5.01011E-3,-4.843478E-4,2.7301933E-3,5.96162E-3,8.729446E-4,1.465307E-2,1.9763017E-3,2.6749386E-2,3.3677847E-3,4.1487888E-3,6.326569E-3,5.9950906E-3,8.551431E-3,-1.4321548E-3,-1.3058834E-3,-1.1788502E-3,-1.0255703E-3,-8.6765096E-4,-7.209251E-4,-5.5002543E-4,-3.837197E-4,-1.7156133E-4,5.9338035E-5,1.9891668E-4,3.683558E-4,4.8805168E-4,6.7514175E-4,1.2450451E-3,1.565603E-3,1.2500071E-3,2.700357E-3],"categories":[],"categories_nodes":[],"categories_segments":[],"categories_sizes":[],"default_left":[0,0,0,0,0,0,0,0,0,0,0,0,0,0,0,0,0,0,0,0,0,0,0,0,0,0,0,0,0,0,0,0,0,0,0,0,0,0,0,0,0,0,0,0,0,0,0,0,0],"id":24,"left_children":[1,3,5,7,9,11,13,15,17,19,21,23,25,27,29,31,33,35,37,39,41,43,-1,45,-1,47,-1,-1,-1,-1,-1,-1,-1,-1,-1,-1,-1,-1,-1,-1,-1,-1,-1,-1,-1,-1,-1,-1,-1],"loss_changes":[6.3979995E-1,8.250372E-2,7.743138E-2,1.2805074E-2,4.557715E-3,2.2143364E-2,1.2884676E-2,1.1630952E-3,9.7518973E-4,5.004619E-4,4.046699E-4,1.4311597E-3,2.076894E-3,1.4175773E-3,4.055351E-4,1.245439E-4,3.253296E-5,1.5160628E-4,7.777661E-5,1.5096556E-4,5.2722695E-5,6.6949986E-5,0E0,1.1656433E-4,0E0,1.0433793E-4,0E0,0E0,0E0,0E0,0E0,0E0,0E0,0E0,0E0,0E0,0E0,0E0,0E0,0E0,0E0,0E0,0E0,0E0,0E0,0E0,0E0,0E0,0E0],"parents":[2147483647,0,0,1,1,2,2,3,3,4,4,5,5,6,6,7,7,8,8,9,9,10,10,11,11,12,12,13,13,14,14,15,15,16,16,17,17,18,18,19,19,20,20,21,21,23,23,25,25],"right_children":[2,4,6,8,10,12,14,16,18,20,22,24,26,28,30,32,34,36,38,40,42,44,-1,46,-1,48,-1,-1,-1,-1,-1,-1,-1,-1,-1,-1,-1,-1,-1,-1,-1,-1,-1,-1,-1,-1,-1,-1,-1],"split_conditions":[3.040342E-1,1.3395925E-1,6.331953E-1,5.1826287E-2,2.1138425E-1,4.392723E-1,8.805549E-1,7.783824E-3,9.031759E-2,1.7911905E-1,2.573537E-1,3.863218E-1,5.4450005E-1,2.1959244E-1,9.4295233E-1,1.9187933E-3,3.1606674E-2,6.343342E-2,9.716059E-2,1.5929973E-1,2.0053382E-1,2.4438396E-1,8.729446E-4,3.4304133E-1,1.9763017E-3,5.448036E-2,3.3677847E-3,4.1487888E-3,6.326569E-3,5.9950906E-3,8.551431E-3,-1.4321548E-3,-1.3058834E-3,-1.1788502E-3,-1.0255703E-3,-8.6765096E-4,-7.209251E-4,-5.5002543E-4,-3.837197E-4,-1.7156133E-4,5.9338035E-5,1.9891668E-4,3.683558E-4,4.8805168E-4,6.7514175E-4,1.2450451E-3,1.565603E-3,1.2500071E-3,2.700357E-3],"split_indices":[1,0,4,1,4,1,0,4,0,4,4,0,0,3,4,0,0,4,4,0,0,1,0,0,0,3,0,0,0,0,0,0,0,0,0,0,0,0,0,0,0,0,0,0,0,0,0,0,0],"split_type":[0,0,0,0,0,0,0,0,0,0,0,0,0,0,0,0,0,0,0,0,0,0,0,0,0,0,0,0,0,0,0,0,0,0,0,0,0,0,0,0,0,0,0,0,0,0,0,0,0],"sum_hessian":[2.75E3,2.135E3,6.15E2,1.701E3,4.34E2,5.11E2,1.04E2,1.133E3,5.68E2,1.96E2,2.38E2,2.63E2,2.48E2,7E1,3.4E1,8.69E2,2.64E2,3.97E2,1.71E2,1.12E2,8.4E1,1.16E2,1.22E2,1.4E2,1.23E2,1.21E2,1.27E2,6.3E1,7E0,2.3E1,1.1E1,2.85E2,5.84E2,1.09E2,1.55E2,1.9E2,2.07E2,1.18E2,5.3E1,5.2E1,6E1,4.9E1,3.5E1,5.2E1,6.4E1,4.8E1,9.2E1,3E0,1.18E2],"tree_param":{"num_deleted":"0","num_feature":"5","num_nodes":"49","size_leaf_vector":"1"}},{"base_weights":[1.7016775E-4,-7.1446034E-3,2.562863E-2,-9.925706E-3,3.7596817E-3,1.9669395E-2,4.2702943E-2,-1.1663801E-2,-6.450401E-3,7.6295884E-4,6.7666983E-3,1.475413E-2,2.5431266E-2,3.5795965E-3,6.432318E-2,-1.2194192E-2,-1.0033426E-2,-7.25647E-3,-4.677929E-3,-7.4186316E-4,2.3741545E-3,5.004777E-3,7.662046E-3,1.1845243E-2,1.6934298E-2,2.2532416E-3,2.7649324E-2,5.195639E-3,8.092889E-3,-1.345869E-3,-1.1972269E-3,-1.0719266E-3,-9.240864E-4,-8.1397564E-4,-6.7121396E-4,-2.5634727E-4,-5.048134E-4,-2.2067968E-4,1.7643184E-5,1.53475E-4,3.2163295E-4,3.9113287E-4,5.6711235E-4,6.752907E-4,8.3418004E-4,2.1103024E-4,1.1915194E-3,5.942583E-4,1.7131616E-3,6.2970817E-4,2.7782556E-3],"categories":[],"categories_nodes":[],"categories_segments":[],"categories_sizes":[],"default_left":[0,0,0,0,0,0,0,0,0,0,0,0,0,0,0,0,0,0,0,0,0,0,0,0,0,0,0,0,0,0,0,0,0,0,0,0,0,0,0,0,0,0,0,0,0,0,0,0,0,0,0],"id":25,"left_children":[1,3,5,7,9,11,13,15,17,19,21,23,25,-1,27,29,31,33,35,37,39,41,43,45,47,-1,49,-1,-1,-1,-1,-1,-1,-1,-1,-1,-1,-1,-1,-1,-1,-1,-1,-1,-1,-1,-1,-1,-1,-1,-1],"loss_changes":[5.1229584E-1,6.484387E-2,6.163448E-2,1.0211572E-2,3.9147073E-3,1.2567535E-2,2.1291733E-2,8.582622E-4,7.8043155E-4,5.3274055E-4,3.039781E-4,1.3785288E-3,7.208288E-4,0E0,3.3935308E-3,7.766485E-5,5.5316836E-5,1.3287738E-4,1.2874231E-4,1.5374686E-4,6.9997855E-5,3.319315E-5,3.1422824E-5,4.9762428E-5,2.018325E-4,0E0,1.4934689E-4,0E0,0E0,0E0,0E0,0E0,0E0,0E0,0E0,0E0,0E0,0E0,0E0,0E0,0E0,0E0,0E0,0E0,0E0,0E0,0E0,0E0,0E0,0E0,0E0],"parents":[2147483647,0,0,1,1,2,2,3,3,4,4,5,5,6,6,7,7,8,8,9,9,10,10,11,11,12,12,14,14,15,15,16,16,17,17,18,18,19,19,20,20,21,21,22,22,23,23,24,24,26,26],"right_children":[2,4,6,8,10,12,14,16,18,20,22,24,26,-1,28,30,32,34,36,38,40,42,44,46,48,-1,50,-1,-1,-1,-1,-1,-1,-1,-1,-1,-1,-1,-1,-1,-1,-1,-1,-1,-1,-1,-1,-1,-1,-1,-1],"split_conditions":[2.8798822E-1,1.3395925E-1,5.9057E-1,5.097953E-2,2.203662E-1,4.2009833E-1,8.9074075E-1,7.4062725E-3,8.182092E-2,1.7974734E-1,2.4980603E-1,3.6731836E-1,5.30086E-1,3.5795965E-3,9.4295233E-1,1.3771948E-3,3.1606674E-2,6.5169506E-2,3.642911E-2,1.5643343E-1,1.9221848E-1,2.4119125E-1,2.704145E-1,2.8507954E-1,3.4191978E-1,2.2532416E-3,4.826843E-1,5.195639E-3,8.092889E-3,-1.345869E-3,-1.1972269E-3,-1.0719266E-3,-9.240864E-4,-8.1397564E-4,-6.7121396E-4,-2.5634727E-4,-5.048134E-4,-2.2067968E-4,1.7643184E-5,1.53475E-4,3.2163295E-4,3.9113287E-4,5.6711235E-4,6.752907E-4,8.3418004E-4,2.1103024E-4,1.1915194E-3,5.942583E-4,1.7131616E-3,6.2970817E-4,2.7782556E-3],"split_indices":[4,0,1,0,0,4,4,1,4,0,0,0,0,0,4,1,0,0,3,1,4,1,0,2,1,0,1,0,0,0,0,0,0,0,0,0,0,0,0,0,0,0,0,0,0,0,0,0,0,0,0],"split_type":[0,0,0,0,0,0,0,0,0,0,0,0,0,0,0,0,0,0,0,0,0,0,0,0,0,0,0,0,0,0,0,0,0,0,0,0,0,0,0,0,0,0,0,0,0,0,0,0,0,0,0],"sum_hessian":[2.749E3,2.136E3,6.13E2,1.702E3,4.34E2,4.56E2,1.57E2,1.133E3,5.69E2,2.18E2,2.16E2,2.48E2,2.08E2,1.21E2,3.6E1,8.5E2,2.83E2,3.89E2,1.8E2,1.13E2,1.05E2,7.5E1,1.41E2,1.09E2,1.39E2,9.5E1,1.13E2,2.3E1,1.3E1,1.18E2,7.32E2,1.45E2,1.38E2,1.43E2,2.46E2,2.8E1,1.52E2,4.3E1,7E1,5.4E1,5.1E1,3.1E1,4.4E1,6.5E1,7.6E1,1E0,1.08E2,3E0,1.36E2,1E0,1.12E2],"tree_param":{"num_deleted":"0","num_feature":"5","num_nodes":"51","size_leaf_vector":"1"}},{"base_weights":[2.1123182E-4,-6.2560095E-3,2.3578877E-2,-8.874737E-3,3.626825E-3,1.9826438E-2,4.8175212E-2,-1.0475638E-2,-5.6713833E-3,8.74751E-4,6.3138544E-3,1.4565932E-2,2.6773935E-2,4.206285E-2,7.267635E-3,-1.0894677E-2,-8.6669513E-4,-6.496559E-3,-4.184144E-3,-3.584478E-4,2.3434868E-3,5.3987806E-3,7.57805E-3,1.2107321E-2,1.7960755E-2,2.3513958E-2,2.8628188E-3,3.8588848E-2,5.5293157E-3,-1.1524173E-3,-1.0444175E-3,-7.20462E-4,-6.068105E-4,-3.020664E-4,-4.534728E-4,-1.4286929E-4,5.2546162E-5,1.508882E-4,2.9120382E-4,4.405174E-4,5.8198784E-4,6.754918E-4,8.437191E-4,9.804354E-4,1.2770834E-3,1.4635492E-3,1.8674256E-3,4.2729676E-4,2.369215E-3,3.2478229E-3,4.4378033E-3],"categories":[],"categories_nodes":[],"categories_segments":[],"categories_sizes":[],"default_left":[0,0,0,0,0,0,0,0,0,0,0,0,0,0,0,0,0,0,0,0,0,0,0,0,0,0,0,0,0,0,0,0,0,0,0,0,0,0,0,0,0,0,0,0,0,0,0,0,0,0,0],"id":26,"left_children":[1,3,5,7,9,11,13,15,17,19,21,23,25,27,-1,29,-1,31,33,35,37,39,41,43,45,47,-1,49,-1,-1,-1,-1,-1,-1,-1,-1,-1,-1,-1,-1,-1,-1,-1,-1,-1,-1,-1,-1,-1,-1,-1],"loss_changes":[4.0924072E-1,5.4924622E-2,5.3222746E-2,8.540675E-3,3.2852087E-3,1.8285707E-2,8.474529E-3,7.52151E-4,6.6129677E-4,4.011248E-4,2.193749E-4,2.2280775E-3,6.506592E-4,8.078739E-4,0E0,1.3572723E-4,0E0,6.519165E-5,6.91053E-5,1.152167E-4,4.353217E-5,3.0428637E-5,8.068513E-6,1.3914332E-4,1.3779849E-5,1.901947E-4,0E0,4.689619E-4,0E0,0E0,0E0,0E0,0E0,0E0,0E0,0E0,0E0,0E0,0E0,0E0,0E0,0E0,0E0,0E0,0E0,0E0,0E0,0E0,0E0,0E0,0E0],"parents":[2147483647,0,0,1,1,2,2,3,3,4,4,5,5,6,6,7,7,8,8,9,9,10,10,11,11,12,12,13,13,15,15,17,17,18,18,19,19,20,20,21,21,22,22,23,23,24,24,25,25,27,27],"right_children":[2,4,6,8,10,12,14,16,18,20,22,24,26,28,-1,30,-1,32,34,36,38,40,42,44,46,48,-1,50,-1,-1,-1,-1,-1,-1,-1,-1,-1,-1,-1,-1,-1,-1,-1,-1,-1,-1,-1,-1,-1,-1,-1],"split_conditions":[3.040342E-1,1.18078336E-1,6.474598E-1,5.4423835E-2,2.2374693E-1,4.9366963E-1,9.26551E-1,1.6538377E-3,8.80904E-2,1.7911905E-1,2.7231565E-1,3.924418E-1,5.469094E-1,2.3189843E-1,7.267635E-3,2.77946E-3,-8.6669513E-4,6.478247E-2,3.809909E-2,1.5929973E-1,1.9221848E-1,2.4278753E-1,6.0525972E-2,3.266981E-1,4.081376E-1,5.448036E-2,2.8628188E-3,8.231532E-1,5.5293157E-3,-1.1524173E-3,-1.0444175E-3,-7.20462E-4,-6.068105E-4,-3.020664E-4,-4.534728E-4,-1.4286929E-4,5.2546162E-5,1.508882E-4,2.9120382E-4,4.405174E-4,5.8198784E-4,6.754918E-4,8.437191E-4,9.804354E-4,1.2770834E-3,1.4635492E-3,1.8674256E-3,4.2729676E-4,2.369215E-3,3.2478229E-3,4.4378033E-3],"split_indices":[1,4,4,1,0,0,1,3,0,4,1,4,4,3,0,0,0,1,3,0,4,4,3,4,0,3,0,1,0,0,0,0,0,0,0,0,0,0,0,0,0,0,0,0,0,0,0,0,0,0,0],"split_type":[0,0,0,0,0,0,0,0,0,0,0,0,0,0,0,0,0,0,0,0,0,0,0,0,0,0,0,0,0,0,0,0,0,0,0,0,0,0,0,0,0,0,0,0,0,0,0,0,0,0,0],"sum_hessian":[2.706E3,2.12E3,5.86E2,1.676E3,4.44E2,5.1E2,7.6E1,1.116E3,5.6E2,2.2E2,2.24E2,2.92E2,2.18E2,6.3E1,1.3E1,9.02E2,2.14E2,3.58E2,2.02E2,1.2E2,1E2,1.33E2,9.1E1,1.72E2,1.2E2,8.4E1,1.34E2,5.3E1,1E1,3.66E2,5.36E2,1.29E2,2.29E2,4.9E1,1.53E2,5.4E1,6.6E1,4.2E1,5.8E1,4.3E1,9E1,5.1E1,4E1,4.2E1,1.3E2,2.5E1,9.5E1,1E0,8.3E1,2.9E1,2.4E1],"tree_param":{"num_deleted":"0","num_feature":"5","num_nodes":"51","size_leaf_vector":"1"}},{"base_weights":[2.4716195E-4,-6.1023445E-3,1.9899568E-2,-8.124262E-3,2.0748375E-3,1.6321883E-2,3.830417E-2,-9.689017E-3,-5.8374032E-3,-4.674772E-4,4.5093955E-3,1.1382276E-2,2.1861354E-2,3.5036642E-2,6.9990936E-3,-1.0159009E-2,-9.075836E-4,-6.8065175E-3,-4.710309E-3,-1.9793757E-3,9.1928215E-4,2.9374852E-3,5.3376323E-3,8.155115E-3,1.3302314E-2,1.884938E-2,2.383169E-2,3.347573E-2,6.3739377E-3,-1.1056316E-3,-9.908173E-4,-7.322294E-4,-6.1299326E-4,-5.046234E-4,-3.6514143E-4,-1.1197004E-4,-2.969908E-4,-4.2187075E-5,1.1302494E-4,2.5347812E-4,3.8331302E-4,4.923154E-4,7.758234E-4,6.659195E-4,8.914469E-4,1.1638801E-3,1.4771223E-3,1.0494287E-3,1.9153083E-3,6.384522E-4,2.3903993E-3,3.002513E-3,4.2576487E-3],"categories":[],"categories_nodes":[],"categories_segments":[],"categories_sizes":[],"default_left":[0,0,0,0,0,0,0,0,0,0,0,0,0,0,0,0,0,0,0,0,0,0,0,0,0,0,0,0,0,0,0,0,0,0,0,0,0,0,0,0,0,0,0,0,0,0,0,0,0,0,0,0,0],"id":27,"left_children":[1,3,5,7,9,11,13,15,17,19,21,23,25,27,-1,29,-1,31,33,35,37,39,41,43,45,47,49,51,-1,-1,-1,-1,-1,-1,-1,-1,-1,-1,-1,-1,-1,-1,-1,-1,-1,-1,-1,-1,-1,-1,-1,-1,-1],"loss_changes":[3.3828357E-1,3.389419E-2,4.2964727E-2,5.8227107E-3,2.5211987E-3,1.4964879E-2,8.626252E-3,1.8849224E-4,6.99766E-4,4.211475E-4,2.551186E-4,1.7256141E-3,1.0997206E-3,2.3017228E-3,0E0,1.2669712E-5,0E0,8.004531E-5,9.2911534E-5,7.842202E-5,3.018543E-5,1.6974227E-5,9.724917E-5,6.8997964E-5,2.7769431E-4,7.304922E-5,4.1663647E-5,1.7363355E-3,0E0,0E0,0E0,0E0,0E0,0E0,0E0,0E0,0E0,0E0,0E0,0E0,0E0,0E0,0E0,0E0,0E0,0E0,0E0,0E0,0E0,0E0,0E0,0E0,0E0],"parents":[2147483647,0,0,1,1,2,2,3,3,4,4,5,5,6,6,7,7,8,8,9,9,10,10,11,11,12,12,13,13,15,15,17,17,18,18,19,19,20,20,21,21,22,22,23,23,24,24,25,25,26,26,27,27],"right_children":[2,4,6,8,10,12,14,16,18,20,22,24,26,28,-1,30,-1,32,34,36,38,40,42,44,46,48,50,52,-1,-1,-1,-1,-1,-1,-1,-1,-1,-1,-1,-1,-1,-1,-1,-1,-1,-1,-1,-1,-1,-1,-1,-1,-1],"split_conditions":[2.7622446E-1,1.08496875E-1,6.223083E-1,3.3147674E-2,1.9221848E-1,4.392723E-1,9.4295233E-1,3.8695016E-3,7.24969E-2,1.5355422E-1,2.2959664E-1,3.323238E-1,5.131599E-1,3.020917E-1,6.9990936E-3,1.1137209E-3,-9.075836E-4,5.2837178E-2,9.731302E-2,6.845708E-2,1.5929973E-1,1.01413965E-1,1.02252215E-1,6.0525972E-2,3.832727E-1,5.448036E-2,5.2442515E-1,8.786814E-1,6.3739377E-3,-1.1056316E-3,-9.908173E-4,-7.322294E-4,-6.1299326E-4,-5.046234E-4,-3.6514143E-4,-1.1197004E-4,-2.969908E-4,-4.2187075E-5,1.1302494E-4,2.5347812E-4,3.8331302E-4,4.923154E-4,7.758234E-4,6.659195E-4,8.914469E-4,1.1638801E-3,1.4771223E-3,1.0494287E-3,1.9153083E-3,6.384522E-4,2.3903993E-3,3.002513E-3,4.2576487E-3],"split_indices":[1,0,0,1,4,1,4,1,1,4,1,4,4,3,0,0,0,4,0,3,0,3,3,3,4,3,0,1,0,0,0,0,0,0,0,0,0,0,0,0,0,0,0,0,0,0,0,0,0,0,0,0,0],"split_type":[0,0,0,0,0,0,0,0,0,0,0,0,0,0,0,0,0,0,0,0,0,0,0,0,0,0,0,0,0,0,0,0,0,0,0,0,0,0,0,0,0,0,0,0,0,0,0,0,0,0,0,0,0],"sum_hessian":[2.709E3,2.048E3,6.61E2,1.642E3,4.06E2,5.55E2,1.06E2,9.73E2,6.69E2,1.99E2,2.07E2,2.95E2,2.6E2,9.8E1,8E0,5.42E2,4.31E2,3.57E2,3.12E2,9.5E1,1.04E2,7.3E1,1.34E2,1.12E2,1.83E2,1.07E2,1.53E2,9.5E1,3E0,1.09E2,4.33E2,1.97E2,1.6E2,2.34E2,7.8E1,5.2E1,4.3E1,1.4E1,9E1,5.3E1,2E1,1.17E2,1.7E1,4.1E1,7.1E1,9E1,9.3E1,5E0,1.02E2,1E0,1.52E2,7.2E1,2.3E1],"tree_param":{"num_deleted":"0","num_feature":"5","num_nodes":"53","size_leaf_vector":"1"}},{"base_weights":[1.5007732E-4,-5.274092E-3,1.8522583E-2,-7.2396435E-3,2.6145226E-3,1.5951687E-2,4.3380275E-2,-8.718357E-3,-5.1253033E-3,2.6476462E-4,4.4575194E-3,1.1079939E-2,2.1363795E-2,3.7104703E-2,6.224919E-3,-9.2609524E-4,-8.293196E-4,-6.005503E-3,-3.9855507E-3,-5.453915E-4,1.2646632E-3,3.185649E-3,5.1098275E-3,9.318727E-3,1.3887201E-2,1.8316327E-2,2.3747655E-2,3.310836E-2,5.4640286E-3,-6.5897236E-4,-5.4431777E-4,-4.4536564E-4,-3.2253083E-4,-1.2520148E-4,5.922793E-6,7.137556E-5,1.7262551E-4,2.8046884E-4,4.4996905E-4,4.5824182E-4,5.8072753E-4,7.332749E-4,1.0543548E-3,3.2078178E-4,1.3953322E-3,1.9020617E-3,1.0948008E-3,2.4008995E-3,1.1523807E-3,1.8375831E-3,3.7406676E-3],"categories":[],"categories_nodes":[],"categories_segments":[],"categories_sizes":[],"default_left":[0,0,0,0,0,0,0,0,0,0,0,0,0,0,0,0,0,0,0,0,0,0,0,0,0,0,0,0,0,0,0,0,0,0,0,0,0,0,0,0,0,0,0,0,0,0,0,0,0,0,0],"id":28,"left_children":[1,3,5,7,9,11,13,15,17,19,21,23,25,27,-1,-1,-1,29,31,33,35,37,39,41,43,45,47,49,-1,-1,-1,-1,-1,-1,-1,-1,-1,-1,-1,-1,-1,-1,-1,-1,-1,-1,-1,-1,-1,-1,-1],"loss_changes":[2.7325362E-1,3.2844022E-2,3.92496E-2,5.254738E-3,1.8306624E-3,1.4739424E-2,4.558228E-3,1.5297532E-4,6.7831203E-4,1.5217355E-4,1.8034875E-4,1.3587847E-3,1.5119836E-3,1.4145449E-3,0E0,0E0,0E0,9.323936E-5,9.52445E-5,4.4506924E-5,2.0128617E-5,2.8929382E-5,3.0403957E-5,3.799908E-4,3.5738572E-5,4.2486936E-4,1.9292533E-4,1.8456243E-3,0E0,0E0,0E0,0E0,0E0,0E0,0E0,0E0,0E0,0E0,0E0,0E0,0E0,0E0,0E0,0E0,0E0,0E0,0E0,0E0,0E0,0E0,0E0],"parents":[2147483647,0,0,1,1,2,2,3,3,4,4,5,5,6,6,7,7,8,8,9,9,10,10,11,11,12,12,13,13,17,17,18,18,19,19,20,20,21,21,22,22,23,23,24,24,25,25,26,26,27,27],"right_children":[2,4,6,8,10,12,14,16,18,20,22,24,26,28,-1,-1,-1,30,32,34,36,38,40,42,44,46,48,50,-1,-1,-1,-1,-1,-1,-1,-1,-1,-1,-1,-1,-1,-1,-1,-1,-1,-1,-1,-1,-1,-1,-1],"split_conditions":[2.8069347E-1,1.18078336E-1,6.6071916E-1,3.3147674E-2,2.0390378E-1,4.3705484E-1,9.4295233E-1,3.1942073E-3,7.66082E-2,1.7923364E-1,2.4438396E-1,3.9724785E-1,5.6022936E-1,2.5934112E-1,6.224919E-3,-9.2609524E-4,-8.293196E-4,5.2837178E-2,9.731302E-2,1.5193863E-1,1.8997538E-1,1.0360542E-1,4.699344E-2,3.4304133E-1,2.9499456E-1,5.592909E-1,6.671931E-1,8.40887E-1,5.4640286E-3,-6.5897236E-4,-5.4431777E-4,-4.4536564E-4,-3.2253083E-4,-1.2520148E-4,5.922793E-6,7.137556E-5,1.7262551E-4,2.8046884E-4,4.4996905E-4,4.5824182E-4,5.8072753E-4,7.332749E-4,1.0543548E-3,3.2078178E-4,1.3953322E-3,1.9020617E-3,1.0948008E-3,2.4008995E-3,1.1523807E-3,1.8375831E-3,3.7406676E-3],"split_indices":[4,4,1,1,4,4,4,0,0,1,1,0,1,3,0,0,0,4,0,4,0,3,3,0,1,2,0,0,0,0,0,0,0,0,0,0,0,0,0,0,0,0,0,0,0,0,0,0,0,0,0],"split_type":[0,0,0,0,0,0,0,0,0,0,0,0,0,0,0,0,0,0,0,0,0,0,0,0,0,0,0,0,0,0,0,0,0,0,0,0,0,0,0,0,0,0,0,0,0,0,0,0,0,0,0],"sum_hessian":[2.74E3,2.116E3,6.24E2,1.694E3,4.22E2,5.67E2,5.7E1,9.95E2,6.99E2,1.86E2,2.36E2,3E2,2.67E2,4.5E1,1.2E1,4.28E2,5.67E2,3.92E2,3.07E2,1.03E2,8.3E1,8.2E1,1.54E2,1.87E2,1.13E2,1.21E2,1.46E2,3.9E1,6E0,1.87E2,2.05E2,1.87E2,1.2E2,4.7E1,5.6E1,3.9E1,4.4E1,6.6E1,1.6E1,9.2E1,6.2E1,7.4E1,1.13E2,1E0,1.12E2,1.09E2,1.2E1,1.42E2,4E0,1E1,2.9E1],"tree_param":{"num_deleted":"0","num_feature":"5","num_nodes":"51","size_leaf_vector":"1"}},{"base_weights":[2.8899728E-4,-4.5786994E-3,1.771617E-2,-6.402484E-3,3.0675544E-3,1.4403772E-2,3.2954816E-2,-7.6077054E-3,-3.9830348E-3,8.750466E-4,4.6287007E-3,1.1041581E-2,1.8957535E-2,2.8444506E-2,4.7179848E-2,-7.894672E-3,-5.99148E-4,-4.5107496E-3,-2.5794853E-3,-1.0971193E-4,1.7844317E-3,3.941161E-3,5.6261183E-3,8.24828E-3,1.24762785E-2,1.6955333E-2,2.0587174E-3,2.4185184E-2,3.7907627E-3,1.7903785E-3,4.90275E-3,-8.616345E-4,-7.6528743E-4,-5.061393E-4,-4.0341858E-4,-1.02952436E-4,-2.9292493E-4,-7.968213E-5,2.8677148E-5,1.5606245E-4,2.990012E-4,3.6784355E-4,6.346092E-4,5.838635E-4,-7.214323E-5,8.425194E-4,-2.8036038E-5,2.4636587E-4,1.2571206E-3,1.4928196E-3,2.0557237E-3,2.6393873E-3,1.5042786E-3],"categories":[],"categories_nodes":[],"categories_segments":[],"categories_sizes":[],"default_left":[0,0,0,0,0,0,0,0,0,0,0,0,0,0,0,0,0,0,0,0,0,0,0,0,0,0,0,0,0,0,0,0,0,0,0,0,0,0,0,0,0,0,0,0,0,0,0,0,0,0,0,0,0],"id":29,"left_children":[1,3,5,7,9,11,13,15,17,19,21,23,25,27,29,31,-1,33,35,37,39,41,43,45,47,49,-1,51,-1,-1,-1,-1,-1,-1,-1,-1,-1,-1,-1,-1,-1,-1,-1,-1,-1,-1,-1,-1,-1,-1,-1,-1,-1],"loss_changes":[2.3234618E-1,2.9876143E-2,2.9710248E-2,5.0114244E-3,1.4095767E-3,7.3388144E-3,5.458869E-3,4.874617E-4,4.1573308E-4,1.5512158E-4,1.4309585E-4,1.0432489E-3,3.2962114E-4,2.428636E-3,4.204251E-4,1.0437146E-4,0E0,8.9271925E-5,8.3723455E-5,2.3112412E-5,1.961732E-5,6.89046E-5,1.3371254E-4,1.5324634E-4,1.4676899E-4,4.1596964E-4,0E0,8.1452355E-4,0E0,0E0,0E0,0E0,0E0,0E0,0E0,0E0,0E0,0E0,0E0,0E0,0E0,0E0,0E0,0E0,0E0,0E0,0E0,0E0,0E0,0E0,0E0,0E0,0E0],"parents":[2147483647,0,0,1,1,2,2,3,3,4,4,5,5,6,6,7,7,8,8,9,9,10,10,11,11,12,12,13,13,14,14,15,15,17,17,18,18,19,19,20,20,21,21,22,22,23,23,24,24,25,25,27,27],"right_children":[2,4,6,8,10,12,14,16,18,20,22,24,26,28,30,32,-1,34,36,38,40,42,44,46,48,50,-1,52,-1,-1,-1,-1,-1,-1,-1,-1,-1,-1,-1,-1,-1,-1,-1,-1,-1,-1,-1,-1,-1,-1,-1,-1,-1],"split_conditions":[3.0689633E-1,1.4853185E-1,6.331953E-1,5.685593E-2,2.149033E-1,4.788419E-1,1.9192518E-1,2.8287128E-2,8.7370604E-2,1.7911905E-1,2.6591462E-1,3.7181428E-1,5.6022936E-1,8.786814E-1,6.6071916E-1,1.7035109E-3,-5.99148E-4,6.5427765E-2,3.934174E-2,1.5929973E-1,1.24942064E-1,1.1563794E-1,3.2852092E-1,3.7194178E-1,3.323238E-1,1.4306745E-1,2.0587174E-3,1.358846E-1,3.7907627E-3,1.7903785E-3,4.90275E-3,-8.616345E-4,-7.6528743E-4,-5.061393E-4,-4.0341858E-4,-1.02952436E-4,-2.9292493E-4,-7.968213E-5,2.8677148E-5,1.5606245E-4,2.990012E-4,3.6784355E-4,6.346092E-4,5.838635E-4,-7.214323E-5,8.425194E-4,-2.8036038E-5,2.4636587E-4,1.2571206E-3,1.4928196E-3,2.0557237E-3,2.6393873E-3,1.5042786E-3],"split_indices":[4,4,4,1,4,4,3,4,4,4,4,0,1,1,1,1,0,4,3,0,3,3,0,4,4,3,0,3,0,0,0,0,0,0,0,0,0,0,0,0,0,0,0,0,0,0,0,0,0,0,0,0,0],"split_type":[0,0,0,0,0,0,0,0,0,0,0,0,0,0,0,0,0,0,0,0,0,0,0,0,0,0,0,0,0,0,0,0,0,0,0,0,0,0,0,0,0,0,0,0,0,0,0,0,0,0,0,0,0],"sum_hessian":[2.737E3,2.14E3,5.97E2,1.728E3,4.12E2,4.92E2,1.05E2,1.152E3,5.76E2,1.72E2,2.4E2,2.85E2,2.07E2,8.2E1,2.3E1,9.75E2,1.77E2,4.17E2,1.59E2,8.3E1,8.9E1,1.45E2,9.5E1,9.9E1,1.86E2,9.8E1,1.09E2,5.9E1,2.3E1,2E0,2.1E1,2.36E2,7.39E2,1.89E2,2.28E2,3E1,1.29E2,3E1,5.3E1,7.7E1,1.2E1,1.33E2,1.2E1,9.2E1,3E0,9.7E1,2E0,2E0,1.84E2,6.6E1,3.2E1,4.6E1,1.3E1],"tree_param":{"num_deleted":"0","num_feature":"5","num_nodes":"53","size_leaf_vector":"1"}},{"base_weights":[2.9681125E-4,-3.9681033E-3,1.6101569E-2,-5.770111E-3,2.763379E-3,1.3526057E-2,3.196506E-2,-6.8938984E-3,-3.679574E-3,8.6469937E-4,4.415266E-3,9.741806E-3,1.7080085E-2,2.861383E-2,5.0385143E-3,-7.264858E-3,-5.9570395E-3,-4.275033E-3,-2.5317057E-3,5.2433923E-5,1.6463953E-3,3.7057716E-3,5.2757896E-3,8.551685E-3,1.1210533E-2,1.580698E-2,1.978272E-2,2.6494358E-2,4.3904167E-2,-8.184162E-4,-7.116497E-4,-6.360795E-4,-5.4278004E-4,-4.8078486E-4,-3.9794375E-4,-1.2570771E-4,-2.8142132E-4,1.5216923E-5,-5.160019E-4,1.1611008E-4,2.1466914E-4,3.4181657E-4,5.649179E-4,5.3447613E-4,1.10319255E-4,8.002617E-4,1.1418512E-3,7.6627027E-4,1.1500278E-3,4.2684824E-4,1.5979408E-3,1.9997077E-3,7.758081E-4,2.3113657E-3,3.2316097E-3,1.1257827E-3,4.746892E-3],"categories":[],"categories_nodes":[],"categories_segments":[],"categories_sizes":[],"default_left":[0,0,0,0,0,0,0,0,0,0,0,0,0,0,0,0,0,0,0,0,0,0,0,0,0,0,0,0,0,0,0,0,0,0,0,0,0,0,0,0,0,0,0,0,0,0,0,0,0,0,0,0,0,0,0,0,0],"id":30,"left_children":[1,3,5,7,9,11,13,15,17,19,21,23,25,27,-1,29,31,33,35,37,39,41,43,45,47,49,51,53,55,-1,-1,-1,-1,-1,-1,-1,-1,-1,-1,-1,-1,-1,-1,-1,-1,-1,-1,-1,-1,-1,-1,-1,-1,-1,-1,-1,-1],"loss_changes":[1.8334064E-1,2.5998797E-2,2.318278E-2,3.944982E-3,1.4169738E-3,6.5448284E-3,3.4966767E-3,3.3831596E-4,3.9449707E-4,1.3452192E-4,1.2819842E-4,3.3063442E-4,5.681217E-4,1.1053085E-3,0E0,4.8413873E-5,3.3210963E-5,4.213443E-5,7.028121E-5,5.537108E-5,2.3728906E-5,5.670532E-5,2.489728E-5,1.2741983E-4,2.0841137E-5,2.8792024E-4,4.591234E-5,5.126782E-4,2.8023496E-4,0E0,0E0,0E0,0E0,0E0,0E0,0E0,0E0,0E0,0E0,0E0,0E0,0E0,0E0,0E0,0E0,0E0,0E0,0E0,0E0,0E0,0E0,0E0,0E0,0E0,0E0,0E0,0E0],"parents":[2147483647,0,0,1,1,2,2,3,3,4,4,5,5,6,6,7,7,8,8,9,9,10,10,11,11,12,12,13,13,15,15,16,16,17,17,18,18,19,19,20,20,21,21,22,22,23,23,24,24,25,25,26,26,27,27,28,28],"right_children":[2,4,6,8,10,12,14,16,18,20,22,24,26,28,-1,30,32,34,36,38,40,42,44,46,48,50,52,54,56,-1,-1,-1,-1,-1,-1,-1,-1,-1,-1,-1,-1,-1,-1,-1,-1,-1,-1,-1,-1,-1,-1,-1,-1,-1,-1,-1,-1],"split_conditions":[3.2015282E-1,1.3700011E-1,6.474598E-1,5.1826287E-2,2.2959664E-1,4.3705484E-1,9.4295233E-1,6.8306196E-3,8.182092E-2,1.8633686E-1,2.6964563E-1,3.8818714E-1,5.927036E-1,3.020917E-1,5.0385143E-3,1.0474956E-3,2.8287128E-2,5.927789E-2,3.8884457E-2,2.5934112E-1,2.1115762E-1,1.02252215E-1,3.5116613E-1,1.6079824E-1,3.9724785E-1,4.4291854E-1,1.9763719E-1,8.805549E-1,6.6071916E-1,-8.184162E-4,-7.116497E-4,-6.360795E-4,-5.4278004E-4,-4.8078486E-4,-3.9794375E-4,-1.2570771E-4,-2.8142132E-4,1.5216923E-5,-5.160019E-4,1.1611008E-4,2.1466914E-4,3.4181657E-4,5.649179E-4,5.3447613E-4,1.10319255E-4,8.002617E-4,1.1418512E-3,7.6627027E-4,1.1500278E-3,4.2684824E-4,1.5979408E-3,1.9997077E-3,7.758081E-4,2.3113657E-3,3.2316097E-3,1.1257827E-3,4.746892E-3],"split_indices":[4,4,4,1,1,4,4,0,4,1,4,4,0,3,0,1,4,4,3,3,2,3,0,3,0,0,3,0,1,0,0,0,0,0,0,0,0,0,0,0,0,0,0,0,0,0,0,0,0,0,0,0,0,0,0,0,0],"split_type":[0,0,0,0,0,0,0,0,0,0,0,0,0,0,0,0,0,0,0,0,0,0,0,0,0,0,0,0,0,0,0,0,0,0,0,0,0,0,0,0,0,0,0,0,0,0,0,0,0,0,0,0,0,0,0,0,0],"sum_hessian":[2.718E3,2.141E3,5.77E2,1.689E3,4.52E2,4.98E2,7.9E1,1.097E3,5.92E2,2.11E2,2.41E2,2.43E2,2.55E2,6.9E1,1E1,7.81E2,3.16E2,3.88E2,2.04E2,1.04E2,1.07E2,1.35E2,1.06E2,1.38E2,1.05E2,1.78E2,7.7E1,6.3E1,6E0,1.01E2,6.8E2,1.73E2,1.43E2,1.33E2,2.55E2,3.8E1,1.66E2,1.03E2,1E0,5.6E1,5.1E1,1.2E2,1.5E1,1.04E2,2E0,1.19E2,1.9E1,1E1,9.5E1,3E0,1.75E2,7.5E1,2E0,4.3E1,2E1,1E0,5E0],"tree_param":{"num_deleted":"0","num_feature":"5","num_nodes":"57","size_leaf_vector":"1"}},{"base_weights":[9.87338E-5,-3.906322E-3,1.361564E-2,-5.354333E-3,1.5571278E-3,1.0988922E-2,2.7108554E-2,-6.368148E-3,-3.820224E-3,-1.9636778E-4,3.2491495E-3,8.337032E-3,1.5208939E-2,2.3803802E-2,4.7648116E-3,-6.6738245E-3,-5.872142E-4,-4.3021105E-3,-2.865134E-3,-1.1189481E-3,6.3967326E-4,2.1906716E-3,3.7850423E-3,6.0360665E-3,1.0099126E-2,5.590856E-3,1.537585E-2,2.2131193E-2,4.3253023E-2,-7.3803676E-4,-6.504303E-4,-4.770462E-4,-3.8249683E-4,-1.7647845E-4,-3.0643327E-4,2.4234309E-5,-1.487128E-4,1.3391055E-5,1.0550027E-4,1.757788E-4,3.3581452E-4,3.4540056E-4,4.755132E-4,4.501143E-4,7.060582E-4,1.0157177E-3,-2.040118E-5,1.2956113E-4,6.340765E-4,1.544346E-3,1.0620952E-4,1.9986096E-3,2.761477E-3,1.0694951E-3,4.7625653E-3],"categories":[],"categories_nodes":[],"categories_segments":[],"categories_sizes":[],"default_left":[0,0,0,0,0,0,0,0,0,0,0,0,0,0,0,0,0,0,0,0,0,0,0,0,0,0,0,0,0,0,0,0,0,0,0,0,0,0,0,0,0,0,0,0,0,0,0,0,0,0,0,0,0,0,0],"id":31,"left_children":[1,3,5,7,9,11,13,15,17,19,21,23,25,27,-1,29,-1,31,33,35,37,39,41,43,45,47,49,51,53,-1,-1,-1,-1,-1,-1,-1,-1,-1,-1,-1,-1,-1,-1,-1,-1,-1,-1,-1,-1,-1,-1,-1,-1,-1,-1],"loss_changes":[1.4779024E-1,1.6669191E-2,2.181796E-2,2.5652498E-3,1.3120311E-3,5.7372972E-3,5.7214797E-3,1.1257827E-4,2.9373728E-4,1.6886243E-4,1.1933502E-4,1.2527052E-3,2.3671612E-4,1.9380115E-3,0E0,2.5296584E-5,0E0,8.00807E-5,4.412874E-5,5.2485208E-5,2.4015415E-5,3.3516728E-5,3.1103846E-5,1.9309437E-4,1.1092611E-4,7.890034E-6,1.7424673E-4,4.3616444E-4,3.448315E-4,0E0,0E0,0E0,0E0,0E0,0E0,0E0,0E0,0E0,0E0,0E0,0E0,0E0,0E0,0E0,0E0,0E0,0E0,0E0,0E0,0E0,0E0,0E0,0E0,0E0,0E0],"parents":[2147483647,0,0,1,1,2,2,3,3,4,4,5,5,6,6,7,7,8,8,9,9,10,10,11,11,12,12,13,13,15,15,17,17,18,18,19,19,20,20,21,21,22,22,23,23,24,24,25,25,26,26,27,27,28,28],"right_children":[2,4,6,8,10,12,14,16,18,20,22,24,26,28,-1,30,-1,32,34,36,38,40,42,44,46,48,50,52,54,-1,-1,-1,-1,-1,-1,-1,-1,-1,-1,-1,-1,-1,-1,-1,-1,-1,-1,-1,-1,-1,-1,-1,-1,-1,-1],"split_conditions":[2.8069347E-1,1.008919E-1,6.295601E-1,3.301324E-2,2.1012063E-1,4.788419E-1,9.4295233E-1,4.6906685E-3,7.529969E-2,1.559307E-1,2.4438396E-1,3.7181428E-1,4.9366963E-1,3.020917E-1,4.7648116E-3,1.0474956E-3,-5.872142E-4,6.085303E-2,3.1264365E-2,3.934174E-2,1.7911905E-1,9.293114E-2,6.106139E-2,7.19562E-2,5.30086E-1,5.0200198E-2,3.020917E-1,8.9074075E-1,6.6071916E-1,-7.3803676E-4,-6.504303E-4,-4.770462E-4,-3.8249683E-4,-1.7647845E-4,-3.0643327E-4,2.4234309E-5,-1.487128E-4,1.3391055E-5,1.0550027E-4,1.757788E-4,3.3581452E-4,3.4540056E-4,4.755132E-4,4.501143E-4,7.060582E-4,1.0157177E-3,-2.040118E-5,1.2956113E-4,6.340765E-4,1.544346E-3,1.0620952E-4,1.9986096E-3,2.761477E-3,1.0694951E-3,4.7625653E-3],"split_indices":[4,4,0,0,0,4,4,0,4,4,1,0,0,3,0,1,0,1,3,3,4,3,3,3,0,3,3,4,1,0,0,0,0,0,0,0,0,0,0,0,0,0,0,0,0,0,0,0,0,0,0,0,0,0,0],"split_type":[0,0,0,0,0,0,0,0,0,0,0,0,0,0,0,0,0,0,0,0,0,0,0,0,0,0,0,0,0,0,0,0,0,0,0,0,0,0,0,0,0,0,0,0,0,0,0,0,0,0,0,0,0,0,0],"sum_hessian":[2.728E3,2.105E3,6.23E2,1.664E3,4.41E2,5.23E2,1E2,1E3,6.64E2,2.17E2,2.24E2,3.23E2,2E2,8.8E1,1.2E1,6.11E2,3.89E2,4.39E2,2.25E2,1.03E2,1.14E2,7.7E1,1.47E2,1.42E2,1.81E2,4E0,1.96E2,8.3E1,5E0,1.1E2,5.01E2,2.17E2,2.22E2,3.6E1,1.89E2,2.2E1,8.1E1,5.2E1,6.2E1,5.8E1,1.9E1,1.13E2,3.4E1,5.9E1,8.3E1,1.8E2,1E0,1E0,3E0,1.95E2,1E0,6.3E1,2E1,1E0,4E0],"tree_param":{"num_deleted":"0","num_feature":"5","num_nodes":"55","size_leaf_vector":"1"}},{"base_weights":[1.3321389E-4,-3.6591373E-3,1.1614804E-2,-4.8596426E-3,1.0775892E-3,9.119719E-3,2.2889871E-2,-5.7634218E-3,-3.4925712E-3,-4.0530539E-4,2.480348E-3,6.1082058E-3,1.1954403E-2,1.9770438E-2,3.242697E-2,-6.012017E-3,-5.330091E-4,-4.239949E-3,-3.0010904E-3,-1.1552521E-3,2.7267702E-4,1.6305984E-3,3.1794552E-3,4.5781718E-3,7.2730826E-3,1.0346997E-2,1.3426731E-2,1.7240167E-2,2.664291E-3,1.717354E-3,3.4180578E-2,-6.6521176E-4,-5.859894E-4,-3.832435E-4,-4.4732398E-4,-3.2835812E-4,-2.4138782E-4,-1.7517605E-5,-1.721503E-4,-4.9440092E-5,4.613479E-5,1.399807E-4,2.4321569E-4,2.980762E-4,5.904336E-4,4.708739E-4,1.2690872E-4,6.949285E-4,9.225043E-4,3.6521556E-4,1.066473E-3,5.434553E-5,1.3599492E-3,1.8836468E-3,1.915656E-4,4.713124E-3,2.946944E-3],"categories":[],"categories_nodes":[],"categories_segments":[],"categories_sizes":[],"default_left":[0,0,0,0,0,0,0,0,0,0,0,0,0,0,0,0,0,0,0,0,0,0,0,0,0,0,0,0,0,0,0,0,0,0,0,0,0,0,0,0,0,0,0,0,0,0,0,0,0,0,0,0,0,0,0,0,0],"id":32,"left_children":[1,3,5,7,9,11,13,15,17,19,21,23,25,27,29,31,-1,33,35,37,39,41,43,45,47,49,51,53,-1,-1,55,-1,-1,-1,-1,-1,-1,-1,-1,-1,-1,-1,-1,-1,-1,-1,-1,-1,-1,-1,-1,-1,-1,-1,-1,-1,-1],"loss_changes":[1.20654464E-1,1.1850139E-2,1.9146241E-2,2.033323E-3,8.788259E-4,4.750207E-3,3.0479506E-3,7.557124E-5,2.3117661E-4,1.05055864E-4,1.2372783E-4,4.586177E-4,5.4739416E-4,1.2100339E-3,1.8870458E-4,2.2072345E-5,0E0,7.669441E-6,5.909009E-5,5.4085394E-5,1.6003145E-5,1.5094789E-5,4.6287547E-5,4.6735164E-5,3.3858232E-5,2.6523694E-4,3.2201782E-4,1.7496813E-3,0E0,0E0,1.3637915E-4,0E0,0E0,0E0,0E0,0E0,0E0,0E0,0E0,0E0,0E0,0E0,0E0,0E0,0E0,0E0,0E0,0E0,0E0,0E0,0E0,0E0,0E0,0E0,0E0,0E0,0E0],"parents":[2147483647,0,0,1,1,2,2,3,3,4,4,5,5,6,6,7,7,8,8,9,9,10,10,11,11,12,12,13,13,14,14,15,15,17,17,18,18,19,19,20,20,21,21,22,22,23,23,24,24,25,25,26,26,27,27,30,30],"right_children":[2,4,6,8,10,12,14,16,18,20,22,24,26,28,30,32,-1,34,36,38,40,42,44,46,48,50,52,54,-1,-1,56,-1,-1,-1,-1,-1,-1,-1,-1,-1,-1,-1,-1,-1,-1,-1,-1,-1,-1,-1,-1,-1,-1,-1,-1,-1,-1],"split_conditions":[2.743308E-1,9.716059E-2,6.169756E-1,2.8287128E-2,1.8889476E-1,4.081376E-1,1.9192518E-1,3.282213E-3,6.397237E-2,1.5193863E-1,2.3891139E-1,3.4304133E-1,5.30086E-1,8.40887E-1,6.6071916E-1,1.1137209E-3,-5.330091E-4,1.2239779E-2,8.182092E-2,5.3325355E-2,1.5929973E-1,1.0540243E-1,1.2894933E-1,3.3895317E-1,1.6079824E-1,3.9704508E-1,4.826843E-1,6.671931E-1,2.664291E-3,1.717354E-3,8.231532E-1,-6.6521176E-4,-5.859894E-4,-3.832435E-4,-4.4732398E-4,-3.2835812E-4,-2.4138782E-4,-1.7517605E-5,-1.721503E-4,-4.9440092E-5,4.613479E-5,1.399807E-4,2.4321569E-4,2.980762E-4,5.904336E-4,4.708739E-4,1.2690872E-4,6.949285E-4,9.225043E-4,3.6521556E-4,1.066473E-3,5.434553E-5,1.3599492E-3,1.8836468E-3,1.915656E-4,4.713124E-3,2.946944E-3],"split_indices":[0,4,4,4,4,0,3,4,0,4,0,0,0,0,1,0,0,3,4,3,0,3,3,4,3,4,1,0,0,0,1,0,0,0,0,0,0,0,0,0,0,0,0,0,0,0,0,0,0,0,0,0,0,0,0,0,0],"split_type":[0,0,0,0,0,0,0,0,0,0,0,0,0,0,0,0,0,0,0,0,0,0,0,0,0,0,0,0,0,0,0,0,0,0,0,0,0,0,0,0,0,0,0,0,0,0,0,0,0,0,0,0,0,0,0,0,0],"sum_hessian":[2.769E3,2.082E3,6.87E2,1.661E3,4.21E2,5.64E2,1.23E2,9.98E2,6.63E2,2.05E2,2.16E2,2.75E2,2.89E2,9.5E1,2.8E1,6.26E2,3.72E2,2.6E2,4.03E2,9.7E1,1.08E2,9.9E1,1.17E2,1.21E2,1.54E2,1.42E2,1.47E2,7.2E1,2.3E1,4E0,2.4E1,1.12E2,5.14E2,1.01E2,1.59E2,2.69E2,1.34E2,3.6E1,6.1E1,2.1E1,8.7E1,7.9E1,2E1,1.11E2,6E0,1.16E2,5E0,1.36E2,1.8E1,7E0,1.35E2,2E0,1.45E2,6.5E1,7E0,4E0,2E1],"tree_param":{"num_deleted":"0","num_feature":"5","num_nodes":"57","size_leaf_vector":"1"}},{"base_weights":[2.5515878E-4,-2.9983434E-3,1.1898556E-2,-4.251474E-3,1.8192276E-3,9.716675E-3,2.4901202E-2,-5.0068465E-3,-2.72647E-3,5.6228094E-4,3.1620518E-3,7.0451014E-3,1.2445102E-2,2.1982098E-2,3.9377615E-2,-5.3116675E-3,-4.296988E-3,-3.2201144E-3,-2.0818878E-3,-6.5560406E-4,9.602992E-4,2.52611E-3,3.581106E-3,5.481706E-3,7.921491E-3,1.128753E-2,1.4369078E-2,2.042853E-3,3.5925496E-2,1.9637838E-3,4.3335767E-3,-5.902196E-4,-5.1923195E-4,-4.5337077E-4,-3.998291E-4,-2.911807E-4,-3.6703798E-4,-9.664366E-5,-2.2863888E-4,2.6531518E-6,-1.7420258E-4,4.5736163E-4,8.477141E-5,2.3209905E-4,4.942579E-4,3.6210142E-4,-7.0370734E-5,4.636303E-4,7.501777E-4,4.118385E-4,8.274346E-4,8.252109E-4,1.2029344E-3,1.4450498E-3,3.5206677E-4,4.006237E-3,7.620573E-4],"categories":[],"categories_nodes":[],"categories_segments":[],"categories_sizes":[],"default_left":[0,0,0,0,0,0,0,0,0,0,0,0,0,0,0,0,0,0,0,0,0,0,0,0,0,0,0,0,0,0,0,0,0,0,0,0,0,0,0,0,0,0,0,0,0,0,0,0,0,0,0,0,0,0,0,0,0],"id":33,"left_children":[1,3,5,7,9,11,13,15,17,19,21,23,25,27,29,31,33,35,37,39,41,43,45,47,49,51,53,-1,55,-1,-1,-1,-1,-1,-1,-1,-1,-1,-1,-1,-1,-1,-1,-1,-1,-1,-1,-1,-1,-1,-1,-1,-1,-1,-1,-1,-1],"loss_changes":[1.0337728E-1,1.2884757E-2,1.6666695E-2,1.936594E-3,7.425676E-4,3.6443882E-3,2.7263425E-3,2.2189878E-4,1.7243903E-4,1.1163514E-4,4.7716778E-5,3.1418446E-4,3.990531E-4,8.474216E-4,1.6470812E-4,2.482161E-5,6.267801E-6,3.331853E-5,5.413359E-5,4.2288168E-5,6.650027E-5,3.214687E-5,2.4094013E-5,1.308734E-4,1.8734299E-4,2.6551075E-4,2.9502437E-5,0E0,3.9726403E-4,0E0,0E0,0E0,0E0,0E0,0E0,0E0,0E0,0E0,0E0,0E0,0E0,0E0,0E0,0E0,0E0,0E0,0E0,0E0,0E0,0E0,0E0,0E0,0E0,0E0,0E0,0E0,0E0],"parents":[2147483647,0,0,1,1,2,2,3,3,4,4,5,5,6,6,7,7,8,8,9,9,10,10,11,11,12,12,13,13,14,14,15,15,16,16,17,17,18,18,19,19,20,20,21,21,22,22,23,23,24,24,25,25,26,26,28,28],"right_children":[2,4,6,8,10,12,14,16,18,20,22,24,26,28,30,32,34,36,38,40,42,44,46,48,50,52,54,-1,56,-1,-1,-1,-1,-1,-1,-1,-1,-1,-1,-1,-1,-1,-1,-1,-1,-1,-1,-1,-1,-1,-1,-1,-1,-1,-1,-1,-1],"split_conditions":[3.1080806E-1,1.18078336E-1,6.474598E-1,5.4423835E-2,2.2959664E-1,4.3705484E-1,9.26551E-1,6.8306196E-3,7.6707415E-2,1.5929973E-1,2.5883406E-1,7.19562E-2,5.8381504E-1,3.020917E-1,9.3395513E-1,1.467125E-3,3.1606674E-2,4.1067082E-2,3.462379E-2,6.525792E-2,1.517268E-1,1.2894933E-1,3.5116613E-1,3.96124E-1,3.2015282E-1,7.981276E-2,6.5358734E-1,2.042853E-3,8.805549E-1,1.9637838E-3,4.3335767E-3,-5.902196E-4,-5.1923195E-4,-4.5337077E-4,-3.998291E-4,-2.911807E-4,-3.6703798E-4,-9.664366E-5,-2.2863888E-4,2.6531518E-6,-1.7420258E-4,4.5736163E-4,8.477141E-5,2.3209905E-4,4.942579E-4,3.6210142E-4,-7.0370734E-5,4.636303E-4,7.501777E-4,4.118385E-4,8.274346E-4,8.252109E-4,1.2029344E-3,1.4450498E-3,3.5206677E-4,4.006237E-3,7.620573E-4],"split_indices":[1,4,4,1,1,4,1,0,4,0,1,3,4,3,0,1,0,3,3,3,2,3,0,1,4,3,0,0,0,0,0,0,0,0,0,0,0,0,0,0,0,0,0,0,0,0,0,0,0,0,0,0,0,0,0,0,0],"split_type":[0,0,0,0,0,0,0,0,0,0,0,0,0,0,0,0,0,0,0,0,0,0,0,0,0,0,0,0,0,0,0,0,0,0,0,0,0,0,0,0,0,0,0,0,0,0,0,0,0,0,0,0,0,0,0,0,0],"sum_hessian":[2.727E3,2.132E3,5.95E2,1.692E3,4.4E2,5.11E2,8.4E1,1.13E3,5.62E2,2.28E2,2.12E2,2.6E2,2.51E2,7.2E1,1.2E1,7.86E2,3.44E2,3.16E2,2.46E2,5.6E1,1.72E2,8.7E1,1.25E2,9.6E1,1.64E2,1.61E2,9E1,6.7E1,5E0,3E0,9E0,1.24E2,6.62E2,1.84E2,1.6E2,1.92E2,1.24E2,3.9E1,2.07E2,3.5E1,2.1E1,4E0,1.68E2,8.2E1,5E0,1.24E2,1E0,7E1,2.6E1,1.5E1,1.49E2,3.4E1,1.27E2,8.9E1,1E0,4E0,1E0],"tree_param":{"num_deleted":"0","num_feature":"5","num_nodes":"57","size_leaf_vector":"1"}},{"base_weights":[4.3361735E-5,-2.9019562E-3,9.547818E-3,-3.912141E-3,9.941744E-4,7.6012425E-3,1.8292481E-2,-4.659092E-3,-2.8194236E-3,-2.2316657E-4,2.0355904E-3,4.821041E-3,9.439691E-3,1.5068315E-2,2.766774E-2,-4.849409E-3,-4.227371E-4,-3.1714733E-3,-2.0772512E-3,-8.542125E-4,3.7361868E-4,1.3910645E-3,2.4360155E-3,4.064213E-3,5.975705E-3,8.0427015E-3,1.0902382E-2,1.3988982E-2,2.58677E-3,2.1790757E-3,3.417757E-2,-5.397855E-4,-4.7400608E-4,-3.539688E-4,-2.8796942E-4,-1.3216246E-4,-2.2672354E-4,2.2863026E-4,-9.434556E-5,4.8717655E-5,-3.6118875E-4,